t 0.094223 -0.060046 0.004689 0.102652 -0.012408 0.001565 0.095827 -0.101882 -0.054413 0.563434 -0.112455 0.02029 0.085171 -0.11635 -0.075451 -0.143623 0.066726 -0.032248 0.024072 0.049163 0.038598 -0.054205 -0.210198 -0.076994 0.166917 -0.014722 -0.025833 0.021892 0.042436 -0.03648 -0.025531 -0.171291 0.089175 -0.141176 0.474561 -0.002521 -0.086394 -0.023628 0.056234 0.039179 0.03487 0.081205 0.051602 -0.210465 -0.012108 -0.002815 -0.062602 -0.104805 0.060946 -0.061562 -0.007448 0.062044 0.030855 -0.008521 0.025261 -0.125011 0.037793 -0.127091 -0.089703 0.146114 -0.05762 -0.049767 -0.188795 0.06863 0.042685 0.274713 -0.065011 -0.055981 -0.002685 0.08712 -0.042337 -0.007157 -0.019663 -0.06914 0.114718 -0.00354 -0.13503 -0.083499 0.07514 0.029575 -0.001388 0.069475 0.000607 -0.130696 -0.057512 0.00042 0.053722 -0.118752 -0.001195 -0.00109 0.0565 -0.109201 0.18786 0.065575 -0.028132 -0.012209 0.186165 -0.007761 -0.022101 0.264918 0.030883 -0.006867 -0.037718 0.056277 0.014753 0.033959 -0.156247 -0.08487 0.099782 -0.069532 0.023729 0.202195 0.035391 0.091016 -0.099024 -0.108313 0.097094 -0.097392 -0.039274 0.254508 0.057702 0.032977 -0.018224 0.028345 0.055283 -0.005319 0.000838 -0.091628 -0.044446 -0.004314 0.044773 -0.133414 -0.044946 0.023801 -0.015125 0.023659 0.002528 0.031258 -0.009561 -0.096591 0.05228 -0.020556 -0.084191 -0.10446 0.287746 -0.048922 -0.079602 0.026341 0.133318 0.012002 -0.370861 0.002415 -0.064094 0.013303 -0.265107 -0.057037 0.131561 0.024721 -0.047467 0.043317 -0.154432 0.075745 -0.032558 0.026527 0.076836 -0.08006 0.009419 -0.02601 0.036615 -0.160773 -0.101585 -0.012166 0.3199 -0.069213 -0.005086 -0.05817 0.01693 0.00022 0.054844 -0.294247 -0.043998 -0.152295 -0.052825 -0.022343 0.034804 0.111911 0.246022 0.000942 -0.036708 -0.108595 0.000835 -0.142343 0.021947 0.026421 0.047464 0.039653 -0.11903 0.109734 -0.039837 -0.001442 -0.503209 0.035201 -0.013514 0.019121 -0.021161 -0.013147 0.095864 -0.068792 -0.013728 0.117996 0.028061 0.109042 -0.057916 0.012495 -0.117994 -0.048162 -0.015029 -0.098125 0.0324 0.00488 -0.236448 0.104271 0.068472 -0.051207 0.020763 -0.021748 -0.067701 0.051625 0.038157 0.020982 -0.010858 0.005235 -0.011055 0.059562 -0.15009 -0.038574 -0.04386 -0.060941 0.029571 -0.057362 0.062053 -0.027909 -0.268509 -0.042137 0.29727 0.0074 -0.112234 0.115941 0.055114 0.005009 -0.066368 0.019726 0.031593 0.039835 -0.315389 0.094529 0.037988 0.140945 -0.067307 -0.062949 0.020509 0.10123 -0.067731 -0.057433 0.040392 0.017727 0.033438 -0.031895 -0.014701 -0.030821 0.048869 0.069012 -0.103594 -0.027183 -0.014286 -0.069997 0.610714 -0.018241 -0.22896 -0.064132 0.139969 0.045279 -0.021017 0.0661 0.020571 -0.202027 0.069516 -0.121598 -0.040826 0.010412 0.037043 0.147525 0.074198 -0.035106 -0.117832 -0.283101 -0.006759 0.208778 0.182139 -0.075574
h 0.097127 -0.090293 0.01496 0.122639 -0.003551 -0.036722 0.112598 -0.091721 -0.080543 0.638695 -0.10535 -0.016841 0.088763 -0.098587 -0.084555 -0.123253 0.081133 -0.04288 0.03827 0.07065 0.066233 -0.082127 -0.23046 -0.105956 0.156516 -0.00988 -0.026653 0.000814 0.062302 -0.060248 -0.005688 -0.191324 0.107983 -0.129274 0.480352 -0.018774 -0.072575 -0.024147 0.050391 0.024562 0.063618 0.069348 0.060803 -0.196974 -0.031121 -0.034902 -0.084303 -0.140451 0.070558 -0.090219 -0.024971 0.083605 0.015076 -0.011756 0.039115 -0.125616 0.055258 -0.135694 -0.10876 0.134369 -0.081612 -0.051211 -0.200584 0.068419 0.070087 0.270251 -0.098121 -0.065123 -0.01308 0.069764 -0.04968 -0.041718 -0.027532 -0.058651 0.117153 -0.028676 -0.144601 -0.100904 0.093494 0.043236 0.050945 0.088154 -0.002974 -0.115771 -0.07247 -0.002233 0.058616 -0.124085 0.002966 -0.03662 0.068729 -0.114466 0.187984 0.083327 -0.028398 -0.000964 0.215201 -0.019789 -0.020988 0.28704 0.018423 -0.032798 -0.012979 0.050624 0.032698 0.030644 -0.13645 -0.084432 0.102237 -0.063855 0.008955 0.214013 0.062618 0.11625 -0.099175 -0.099693 0.100849 -0.119611 -0.016733 0.241145 0.038578 0.043415 -0.03194 -0.003437 0.056465 0.004997 0.000611 -0.093705 -0.038952 -0.010321 0.020084 -0.139111 -0.046828 0.031806 -0.008226 0.023898 -0.004964 0.01123 -0.015598 -0.108577 0.077564 -0.028848 -0.064114 -0.130975 0.308112 -0.009906 -0.059795 0.020608 0.119673 0.001757 -0.376683 0.012703 -0.06895 0.0222 -0.293105 -0.05739 0.147178 0.0036 -0.04582 0.059351 -0.159058 0.086441 -0.021289 0.015438 0.073106 -0.08702 0.02744 -0.041709 0.031605 -0.186674 -0.131179 -0.026476 0.361657 -0.091158 -0.021767 -0.007265 0.025465 -0.041904 0.062831 -0.291781 -0.060054 -0.122009 -0.103307 -0.030648 0.04669 0.13002 0.234236 -0.008988 -0.021966 -0.069852 0.033665 -0.151518 0.025789 0.046309 0.01423 0.063472 -0.098239 0.098171 -0.04248 -0.00586 -0.511304 0.027717 -0.009135 0.037125 -0.040975 -0.0259 0.115877 -0.085013 0.009699 0.115174 0.026777 0.106464 -0.058414 -0.00897 -0.10548 -0.083485 -0.041202 -0.103947 0.038541 -0.032579 -0.241516 0.100265 0.087107 -0.055469 0.035448 -0.012417 -0.086183 0.037646 0.037556 0.039077 -0.018425 0.000147 -0.000769 0.065109 -0.160872 -0.046577 -0.082436 -0.076415 0.057324 -0.083541 0.073124 -0.022122 -0.300165 -0.017252 0.373538 0.01509 -0.151479 0.111209 0.029601 0.010651 -0.059182 0.027402 0.021349 0.050512 -0.296232 0.094255 0.05977 0.151775 -0.090196 -0.106878 0.017011 0.128777 -0.095824 -0.082217 0.035474 -0.00297 0.051239 -0.039572 -0.037241 -0.044121 0.016888 0.061799 -0.105299 -0.045662 -0.021547 -0.09766 0.688803 -0.02612 -0.280377 -0.075287 0.141222 0.064379 -0.027362 0.037417 0.015648 -0.194617 0.082469 -0.124389 -0.045217 0.034439 0.052364 0.184479 0.097632 -0.056848 -0.140525 -0.286586 0.029022 0.23893 0.174456 -0.044316
e 0.089275 -0.060401 -0.002973 0.111166 -0.004689 0.008626 0.096351 -0.111889 -0.049504 0.575896 -0.103306 0.004393 0.079117 -0.124455 -0.09141 -0.142615 0.072257 -0.03656 0.033991 0.055571 0.050933 -0.040353 -0.208217 -0.09194 0.156452 -0.009126 -0.027096 0.025582 0.044287 -0.041439 -0.030424 -0.161433 0.099366 -0.139743 0.466381 -0.009121 -0.084001 -0.019817 0.069829 0.033483 0.041927 0.074988 0.051632 -0.204344 -0.015989 -0.004906 -0.068826 -0.111109 0.071716 -0.064694 -0.013221 0.065127 0.026415 -0.004427 0.026352 -0.125663 0.040622 -0.130613 -0.097588 0.136383 -0.066798 -0.051636 -0.192553 0.07158 0.045414 0.254223 -0.066603 -0.059541 -0.004172 0.066089 -0.043501 -0.015215 -0.016344 -0.055413 0.114843 -0.010773 -0.140388 -0.083911 0.077006 0.035518 0.007492 0.081106 0.005471 -0.124969 -0.057504 -0.003123 0.055961 -0.11715 -0.009745 -0.014856 0.06107 -0.106765 0.188371 0.071203 -0.037728 -0.011204 0.194953 -0.007057 -0.03048 0.268547 0.03018 -0.024362 -0.036432 0.0499 0.017766 0.036643 -0.143016 -0.083971 0.094985 -0.071129 0.011671 0.211407 0.054357 0.095567 -0.113131 -0.102675 0.092063 -0.103414 -0.026716 0.255882 0.052569 0.029712 -0.023909 0.025519 0.055714 -0.004947 0.008855 -0.089387 -0.047152 -0.001844 0.043554 -0.139406 -0.054292 0.031825 -0.013537 0.027542 0.007385 0.027368 -0.013981 -0.106147 0.061365 -0.024274 -0.073409 -0.101318 0.284393 -0.040638 -0.069695 0.015651 0.121229 0.006241 -0.37518 0.009989 -0.062657 0.002484 -0.26639 -0.055519 0.124702 0.010114 -0.050878 0.046303 -0.154631 0.063551 -0.028335 0.033221 0.08101 -0.075633 0.012998 -0.0305 0.038477 -0.168612 -0.106558 -0.005957 0.325482 -0.076895 -0.00103 -0.048078 0.021859 -0.005718 0.064456 -0.28659 -0.043998 -0.137317 -0.056226 -0.035854 0.043373 0.110195 0.230792 -0.001372 -0.034581 -0.096407 0.001508 -0.14796 0.021465 0.018615 0.0436 0.051475 -0.115509 0.113903 -0.038 -0.006301 -0.50816 0.031534 -0.013795 0.024552 -0.015841 -0.020951 0.096707 -0.06942 -0.010393 0.114592 0.028327 0.103129 -0.052943 0.00894 -0.107296 -0.048985 -0.012995 -0.101205 0.034512 -0.01383 -0.224627 0.102926 0.071141 -0.049167 0.023555 -0.014062 -0.059383 0.05305 0.043077 0.014105 -0.012658 0.004041 -0.011022 0.060252 -0.167448 -0.032227 -0.05332 -0.049361 0.029535 -0.070909 0.06325 -0.037896 -0.266998 -0.037883 0.319308 0.004359 -0.117246 0.100524 0.05304 -4.3e-05 -0.066976 0.022855 0.035536 0.042105 -0.293273 0.091844 0.047652 0.141387 -0.060813 -0.076373 0.017041 0.104627 -0.07941 -0.062392 0.036117 0.024351 0.039937 -0.035192 -0.031584 -0.039011 0.037857 0.072145 -0.104409 -0.030603 -0.010437 -0.071229 0.628142 -0.022582 -0.243874 -0.069237 0.141112 0.065616 -0.021889 0.060864 0.010197 -0.196723 0.077235 -0.122136 -0.044195 0.016389 0.046069 0.148802 0.091194 -0.033689 -0.121757 -0.291482 0.000329 0.219683 0.183164 -0.063851
, -0.121437 -0.102875 0.01962 0.394708 -0.127684 0.102644 0.130614 -0.154176 0.062426 0.777042 -0.25366 0.155456 0.392627 0.081231 -0.194581 -0.069861 0.160554 0.172266 -0.215364 0.050684 -0.130513 -0.055582 -0.184317 -0.201128 0.206807 -0.031994 -0.047164 0.213915 0.27933 0.043566 -0.051609 -0.261927 -0.119693 -0.196002 0.469689 -0.296254 0.010355 0.018121 0.256842 -0.075763 0.007039 0.010948 0.099901 -0.213701 -0.028863 -0.127173 -0.135726 -0.264444 0.250241 0.043924 0.087984 0.106712 0.005378 -0.126615 0.060413 -0.119646 0.082051 0.047026 -0.028519 0.172163 -0.365251 -0.051028 -0.155257 -0.175493 0.120513 0.166667 -0.025707 0.099312 -0.163826 0.129089 0.126793 -0.125285 0.073629 -0.104406 0.231601 -0.068157 -0.178867 -0.054288 0.262158 -0.059475 -0.056109 -0.094645 -0.098435 0.031778 -0.195001 0.064944 0.121889 -0.401271 0.083817 0.06483 0.180904 -0.147363 0.024857 0.018331 0.259589 -0.123271 0.099693 0.069465 -0.153647 0.421812 -0.131569 -0.008993 0.037051 -0.157245 -0.009988 -0.094881 -0.00199 -0.034191 -0.111444 -0.216714 -0.050552 0.065326 0.163004 -0.020869 -0.282755 -0.095195 -0.024406 0.138078 -0.037585 0.259388 0.00431 0.011992 -0.101671 0.434407 -0.053083 0.098135 0.008847 -0.114764 -0.097216 0.006915 -0.238894 -0.179993 -0.024263 0.28611 -0.122771 0.068635 -0.117372 0.19703 0.129589 -0.112389 -0.198455 -0.065634 -0.18489 -0.07596 0.107724 0.163989 -0.213939 -0.16046 0.249559 0.086499 -0.252092 -0.036027 -0.130998 0.105414 -0.312194 -0.061539 -0.145665 0.072833 -0.268662 0.064012 -0.172323 0.270204 -0.233846 0.303057 0.196952 0.08133 0.085476 -0.132308 0.129096 -0.098881 -0.053255 -0.112668 0.515794 0.001002 -0.032408 -0.25125 -0.005634 -0.002612 -0.111113 -0.309159 -0.050949 -0.149034 -0.080484 -0.017101 0.080177 0.037055 0.317293 -0.079905 0.014146 -0.173619 -0.083127 -0.283625 -0.097408 -0.053281 0.309898 -0.01928 -0.232091 0.114712 0.034624 -0.06086 -0.741305 0.145687 0.082238 -0.001912 -0.106576 0.15226 0.215727 -0.053743 0.105774 0.052133 -0.031291 -0.053917 -0.05218 0.1774 -0.294305 -0.112486 -0.157951 0.056615 0.038169 0.295246 -0.260173 -0.016185 0.111373 0.173933 -0.060356 -0.064172 -0.18062 -0.077751 0.004706 0.056255 -0.010495 -0.144972 -0.146716 0.104085 -0.00639 -0.040742 0.136261 0.04763 0.025685 0.109763 -0.015355 0.050655 -0.2176 0.08436 0.483959 -0.096205 -0.052702 0.133303 -0.041458 0.095455 -0.123391 0.141156 0.176967 -0.075961 -0.337356 0.210987 -0.09912 0.260926 -0.115328 -0.006083 0.207355 0.271468 -0.126051 -0.109707 0.095108 0.125556 0.252068 0.130716 0.226895 -0.102738 0.023847 -0.106741 -0.131851 -0.022476 0.01488 -0.186877 0.707303 0.181365 -0.289946 0.036752 0.080614 -0.094922 0.258438 0.081775 0.026767 -0.138868 0.045381 -0.112448 -0.080889 -0.017 -0.02768 0.118403 0.326574 9.9e-05 0.069742 -0.524239 -0.015687 0.42764 0.379219 -0.207612
. 0.03967 -0.2428 -0.065737 0.327789 -0.040032 -0.008657 -0.038734 -0.236983 0.136742 0.817172 -0.272398 0.065792 0.23378 -0.050809 -0.122444 -0.035285 0.16279 -0.020259 -0.118686 -0.100632 -0.09634 -0.200872 -0.211825 -0.135303 0.200493 -0.04525 0.00567 0.199027 0.265432 -0.0926 -0.223776 -0.3621 0.045602 -0.045836 0.343752 -0.105911 -0.110465 0.090392 0.076826 0.107661 0.011443 0.38024 -0.03903 -0.164372 0.01235 0.016823 -0.084986 0.015324 0.204039 -0.082293 -0.123477 0.069049 -0.123604 -0.143233 0.010935 -0.211481 0.160259 -0.10485 -0.130286 0.03492 -0.202604 -0.202713 -0.214101 -0.093476 0.13335 0.238439 -0.131145 -0.042761 -0.119959 0.068546 0.034749 0.019108 -0.002007 -0.059973 0.082036 -0.0669 -0.067814 -0.14743 0.214387 -0.017615 0.075831 -0.084161 -0.110895 -0.162403 -0.118518 0.091166 0.137361 -0.115175 -0.036778 -0.044962 0.178417 -0.325489 0.160703 0.041686 0.103684 -0.2684 0.048981 -0.011204 -0.078856 0.230554 -0.057174 0.087983 0.018834 0.150285 0.079019 -0.192058 -0.075919 0.094724 0.068758 -0.191016 0.00053 0.152578 0.088193 -0.019672 -0.092878 -0.203736 0.127167 0.029657 0.054097 0.2285 -0.116375 0.080004 -0.074811 0.121316 -0.054512 0.14358 -0.005286 0.050943 -0.086608 -0.015844 -0.160408 -0.22674 0.004498 0.164186 -0.048769 0.073519 -0.055684 0.229272 0.071085 0.049743 0.008476 -0.275242 -0.097887 -0.08572 0.077167 0.161496 -0.273194 -0.12553 0.23572 -0.062989 -0.277723 -0.083957 -0.093521 -0.054249 -0.31104 -0.006808 -0.01254 0.057961 -0.107894 0.07872 -0.134976 0.118897 -0.178697 0.037589 0.18803 -0.052242 0.065087 -0.094528 0.056531 -0.22126 -0.11706 -0.079166 0.452201 -0.068872 0.143057 -0.216151 0.127571 -0.086961 0.112257 -0.232993 -0.146376 -0.143454 -0.168532 -0.05875 -0.059223 0.146303 0.343156 -0.094241 -0.04319 -0.121008 0.026483 -0.194069 -0.052459 0.157286 -0.022169 -0.109088 -0.137784 -0.000631 0.068431 -0.055168 -0.574983 0.045736 -0.052467 0.034956 -0.178994 0.238682 0.179909 -0.192284 -0.0045 0.053312 -0.195604 -0.023258 -0.138038 0.020966 -0.350672 -0.063847 -0.101644 -0.009576 -0.013885 0.326622 -0.22851 0.040846 0.194297 0.183835 -0.166964 -0.151711 -0.033252 0.096576 0.081872 0.276749 -0.027314 -0.033 -0.067552 0.046577 -0.029776 -0.169989 -0.019112 0.076712 0.306518 -0.028782 -0.003229 -0.023345 -0.243417 0.047152 0.370738 -0.039107 -0.141839 0.049493 -0.109118 -0.097156 -0.090766 0.073791 0.302897 -0.071349 -0.443802 0.103779 -0.189259 0.108487 -0.142869 0.065381 0.191429 0.142425 -0.249898 -0.149284 0.138166 0.063469 0.335188 0.144617 0.008694 -0.05283 0.103277 -0.151826 0.017229 -0.091687 -0.166512 -0.042446 0.847092 0.053947 -0.411009 -0.065846 0.149856 0.007167 0.076356 -0.254884 0.078189 -0.191174 -0.014797 -0.156048 -0.136259 -0.149775 0.136863 0.137534 0.044603 0.051908 0.096968 -0.38308 -0.096785 0.15521 0.179775 -0.117857
o 0.100705 -0.062881 0.003153 0.113258 -0.009188 -0.005789 0.084378 -0.107269 -0.049999 0.607853 -0.110203 0.006439 0.091108 -0.110997 -0.079414 -0.148106 0.072964 -0.03287 0.038618 0.064619 0.04405 -0.05341 -0.213089 -0.095395 0.165744 -0.014051 -0.021399 0.014306 0.050711 -0.047244 -0.019913 -0.171041 0.099134 -0.138056 0.489062 -0.008422 -0.079418 -0.016946 0.055299 0.035298 0.039039 0.077114 0.0595 -0.196822 -0.031435 -0.024359 -0.06609 -0.114601 0.07483 -0.062575 -0.011436 0.07851 0.025634 -0.002797 0.021474 -0.122884 0.040605 -0.138291 -0.097322 0.127093 -0.070027 -0.04588 -0.193199 0.071929 0.048483 0.264854 -0.075821 -0.05865 -0.001823 0.060825 -0.047696 -0.016259 -0.017403 -0.067758 0.106551 -0.021393 -0.136528 -0.093426 0.097171 0.031495 0.014745 0.076777 -0.003361 -0.131499 -0.065711 -0.005473 0.060347 -0.118459 -0.004224 -0.023697 0.073721 -0.110718 0.178774 0.065269 -0.025986 -0.006203 0.192156 -0.019697 -0.025855 0.272417 0.02929 -0.02166 -0.03228 0.054356 0.020223 0.036835 -0.155388 -0.092173 0.089423 -0.073107 0.014242 0.20491 0.051528 0.094297 -0.097188 -0.111523 0.098994 -0.10277 -0.03257 0.269983 0.059561 0.034989 -0.025801 0.017157 0.058291 -0.00123 0.005295 -0.093235 -0.047884 -0.000679 0.037253 -0.153065 -0.054559 0.034769 0.003996 0.022929 0.00042 0.017086 -0.005502 -0.112115 0.05274 -0.037536 -0.079649 -0.111321 0.297567 -0.041985 -0.071663 0.016746 0.130297 -0.003594 -0.376753 0.004511 -0.070374 0.007923 -0.274521 -0.057127 0.13141 0.016533 -0.060784 0.047294 -0.152484 0.07341 -0.034128 0.029037 0.07799 -0.098499 0.013794 -0.03614 0.032251 -0.171007 -0.110244 -0.0135 0.344309 -0.07433 0.00023 -0.048932 0.02257 -0.00965 0.059884 -0.302241 -0.058673 -0.136601 -0.062469 -0.020973 0.034576 0.117038 0.232217 0.000961 -0.040107 -0.097785 0.01144 -0.142963 0.022498 0.026679 0.037875 0.048029 -0.109162 0.112606 -0.047597 0.003409 -0.519306 0.038608 -0.015589 0.021541 -0.022685 -0.014571 0.103728 -0.069468 -0.005916 0.117259 0.025787 0.101052 -0.05704 0.007819 -0.114705 -0.050215 -0.016589 -0.111096 0.025276 -0.010797 -0.2336 0.099851 0.079821 -0.051865 0.027041 -0.026537 -0.069842 0.047889 0.040584 0.0253 -0.021287 0.003617 -0.012359 0.059047 -0.153408 -0.044491 -0.052687 -0.0624 0.037566 -0.060544 0.062886 -0.036469 -0.277448 -0.041178 0.339071 0.013034 -0.125121 0.109863 0.050732 0.002777 -0.054947 0.038989 0.02679 0.049424 -0.312008 0.10021 0.042434 0.144796 -0.069949 -0.080688 0.013721 0.116325 -0.079092 -0.070782 0.039503 0.015656 0.047688 -0.025616 -0.030292 -0.042634 0.044409 0.066514 -0.105586 -0.039797 -0.010785 -0.06905 0.643167 -0.019251 -0.246617 -0.074333 0.147629 0.05899 -0.02048 0.056473 0.010039 -0.206627 0.07355 -0.133196 -0.033865 0.013578 0.041712 0.167837 0.081789 -0.039108 -0.113503 -0.287597 -0.001225 0.22494 0.180929 -0.065222
f 0.102069 -0.052299 0.011675 0.111866 -0.01705 0.009144 0.097744 -0.094952 -0.051876 0.57573 -0.093923 0.018304 0.08939 -0.128346 -0.094111 -0.137648 0.079167 -0.039405 0.020664 0.048894 0.055727 -0.039449 -0.217806 -0.096118 0.15838 -0.007754 -0.027965 0.031695 0.04306 -0.037086 -0.036329 -0.171626 0.107371 -0.14077 0.457918 -0.011986 -0.079536 -0.016382 0.085479 0.044185 0.037656 0.082024 0.055314 -0.202461 -0.021748 -0.003902 -0.074561 -0.117919 0.068976 -0.070661 -0.018044 0.064961 0.024977 -0.010368 0.02524 -0.117329 0.044017 -0.11281 -0.093318 0.141909 -0.072415 -0.046834 -0.19943 0.05854 0.039176 0.268818 -0.066729 -0.060805 0.000446 0.070025 -0.038273 -0.00322 -0.018087 -0.049723 0.113779 -0.003777 -0.124366 -0.067276 0.065158 0.038578 -0.000322 0.086931 0.008482 -0.121727 -0.062331 -0.003582 0.059822 -0.118111 -0.012214 -0.019004 0.054516 -0.104737 0.174162 0.064422 -0.035567 -0.013374 0.187537 -0.006937 -0.026302 0.278881 0.019626 -0.025482 -0.024 0.056406 0.015888 0.025193 -0.148463 -0.081441 0.086539 -0.081174 0.009352 0.208984 0.046393 0.097539 -0.103878 -0.1037 0.082674 -0.087989 -0.029482 0.251652 0.051716 0.04406 -0.003257 0.032285 0.0636 -0.009091 -0.008252 -0.098733 -0.046507 -0.004253 0.029058 -0.132146 -0.049196 0.023674 -0.011744 0.022474 0.011124 0.033339 -0.022814 -0.105692 0.059468 -0.010658 -0.084335 -0.107088 0.284465 -0.037711 -0.082698 0.011322 0.11562 0.009099 -0.37725 0.011491 -0.058157 -0.000508 -0.269167 -0.066338 0.14013 0.014824 -0.048096 0.046898 -0.150736 0.076145 -0.038087 0.039282 0.074742 -0.084061 0.00186 -0.025655 0.035625 -0.165194 -0.096595 -0.01408 0.329689 -0.073632 -0.004681 -0.050396 0.015552 -0.013812 0.055521 -0.289992 -0.034846 -0.145044 -0.04822 -0.022666 0.024672 0.111729 0.244268 -0.001274 -0.032927 -0.091709 0.002337 -0.131546 0.020174 0.011737 0.04348 0.045584 -0.11839 0.130645 -0.035043 -0.008274 -0.513246 0.024366 -0.012376 0.025926 -0.00404 -0.012671 0.107391 -0.077358 -0.000538 0.1039 0.03172 0.099285 -0.061694 0.015249 -0.111266 -0.049767 -0.021368 -0.091302 0.039978 -0.00143 -0.234108 0.096409 0.077375 -0.039872 0.013948 -0.014302 -0.062029 0.045071 0.037736 0.023209 -0.002022 0.007333 0.002489 0.053012 -0.152548 -0.038143 -0.050706 -0.054927 0.034716 -0.050462 0.074854 -0.036871 -0.287216 -0.049756 0.317749 0.010911 -0.127161 0.098963 0.045601 0.00241 -0.061517 0.017328 0.034561 0.026444 -0.301149 0.098242 0.029302 0.139846 -0.069776 -0.065982 0.016206 0.102791 -0.076239 -0.064351 0.035233 0.020725 0.03365 -0.029807 -0.024086 -0.047178 0.051851 0.074281 -0.109012 -0.026134 -0.01423 -0.078572 0.627955 -0.016138 -0.251969 -0.064035 0.126078 0.052674 -0.028444 0.075544 0.02135 -0.197045 0.072709 -0.122735 -0.040797 0.00636 0.034235 0.165556 0.0861 -0.033166 -0.118635 -0.294254 -0.003345 0.214012 0.189077 -0.074199
a 0.106388 -0.073944 0.005179 0.120226 -0.000329 -0.035162 0.089285 -0.087197 -0.071079 0.616383 -0.112378 -0.003779 0.095287 -0.108152 -0.071424 -0.13922 0.071559 -0.033556 0.048208 0.068258 0.052271 -0.065991 -0.214733 -0.106981 0.157657 -0.023219 -0.028114 0.001945 0.05018 -0.057847 -0.004834 -0.180618 0.099188 -0.134873 0.495915 -0.021529 -0.067863 -0.021068 0.04199 0.02936 0.04842 0.060193 0.060383 -0.186461 -0.029995 -0.0453 -0.072618 -0.113897 0.08113 -0.081078 -0.014964 0.085604 0.028754 -0.011778 0.029692 -0.124984 0.044438 -0.138442 -0.082759 0.129121 -0.089034 -0.058144 -0.204704 0.071093 0.056962 0.272655 -0.089015 -0.066833 -0.011503 0.068192 -0.049883 -0.0321 -0.015943 -0.072999 0.114636 -0.030057 -0.129686 -0.121374 0.107435 0.042055 0.046386 0.079906 0.001156 -0.121533 -0.082697 -0.004278 0.043641 -0.131587 0.006548 -0.030939 0.065327 -0.119741 0.182355 0.071699 -0.018794 0.007109 0.200515 -0.036396 -0.024992 0.291152 0.038079 -0.026666 -0.019557 0.043649 0.044117 0.04171 -0.147502 -0.093626 0.108384 -0.062789 0.021359 0.205378 0.053823 0.097661 -0.094194 -0.10849 0.110407 -0.114234 -0.029149 0.269234 0.053056 0.043235 -0.032541 -0.000387 0.057918 0.000284 0.004639 -0.092045 -0.039948 -3e-06 0.020986 -0.164503 -0.048902 0.033003 0.010426 0.021003 -0.001483 0.00379 -0.012781 -0.108273 0.063648 -0.027641 -0.083253 -0.120925 0.306129 -0.025193 -0.063685 0.01564 0.124663 0.002192 -0.370102 0.007324 -0.067861 0.023054 -0.293709 -0.062177 0.146237 0.007269 -0.063356 0.052556 -0.154096 0.083322 -0.036665 0.023496 0.072357 -0.105952 0.020896 -0.045393 0.0201 -0.180925 -0.129706 -0.019853 0.367373 -0.0783 -0.008314 -0.009749 0.020854 -0.024289 0.060264 -0.289994 -0.063559 -0.119291 -0.089262 -0.025996 0.040015 0.131304 0.224704 -0.000541 -0.032311 -0.077562 0.03134 -0.139594 0.017273 0.034701 0.019885 0.06401 -0.108883 0.108095 -0.046551 0.012388 -0.514844 0.023733 -0.020059 0.046214 -0.029293 -0.025654 0.117065 -0.074235 0.014806 0.121433 0.019255 0.115714 -0.058693 0.00029 -0.097564 -0.076111 -0.022589 -0.124227 0.028733 -0.018511 -0.243539 0.099407 0.088778 -0.060198 0.033848 -0.017101 -0.072862 0.033332 0.036158 0.034455 -0.01973 -0.007529 -0.012056 0.07474 -0.14995 -0.054483 -0.074008 -0.072377 0.059437 -0.082708 0.073429 -0.028099 -0.290621 -0.028887 0.369528 0.028212 -0.136396 0.112572 0.036285 0.015955 -0.059236 0.032531 0.017391 0.059395 -0.323104 0.091835 0.05529 0.163941 -0.084703 -0.100761 0.016463 0.120783 -0.097414 -0.078382 0.046227 -0.00137 0.056526 -0.03688 -0.038814 -0.054966 0.037775 0.056527 -0.114938 -0.043297 -0.007599 -0.085096 0.67293 -0.030457 -0.254638 -0.067673 0.15628 0.063384 -0.028168 0.040691 0.002664 -0.211232 0.083621 -0.121619 -0.025304 0.032146 0.057667 0.183838 0.097111 -0.055762 -0.136358 -0.275094 0.011902 0.224643 0.163281 -0.05992
n 0.095983 -0.067819 0.009822 0.108681 -0.009129 -0.015426 0.098418 -0.107562 -0.052163 0.586632 -0.11694 0.005374 0.078943 -0.113614 -0.084973 -0.139688 0.078707 -0.039999 0.034782 0.065191 0.051569 -0.055662 -0.210659 -0.09233 0.157603 -0.016455 -0.028434 0.015537 0.043475 -0.047629 -0.02009 -0.173071 0.106657 -0.128816 0.468272 -0.009153 -0.082247 -0.016541 0.061948 0.028862 0.050103 0.065768 0.057414 -0.20025 -0.020429 -0.016374 -0.071967 -0.106032 0.068235 -0.065889 -0.007972 0.075696 0.02884 -0.007717 0.027936 -0.117839 0.047301 -0.12858 -0.095739 0.140416 -0.074688 -0.049686 -0.194298 0.071278 0.056066 0.262074 -0.073127 -0.060262 -0.002947 0.074623 -0.053101 -0.02706 -0.012427 -0.071273 0.111127 -0.016376 -0.142018 -0.089972 0.089903 0.03854 0.015926 0.071431 -7.7e-05 -0.119317 -0.063758 -0.012509 0.050947 -0.126187 0.006147 -0.011577 0.055884 -0.108389 0.184447 0.074478 -0.035414 -0.00979 0.196978 -0.018604 -0.028761 0.273894 0.030521 -0.019488 -0.034934 0.044718 0.01651 0.039523 -0.155415 -0.090934 0.097208 -0.061699 0.020728 0.206704 0.049632 0.095017 -0.091953 -0.102837 0.102034 -0.108622 -0.032672 0.255263 0.044493 0.03693 -0.033075 0.012059 0.054794 -0.01191 0.00211 -0.092306 -0.045195 -0.008005 0.030509 -0.147061 -0.042342 0.025612 -0.008825 0.031865 0.001911 0.01847 -0.008599 -0.103796 0.054835 -0.029131 -0.077863 -0.107996 0.296655 -0.034379 -0.068094 0.016591 0.130546 -0.001401 -0.369408 0.001595 -0.065487 0.00934 -0.271269 -0.0581 0.131823 0.020972 -0.059333 0.048042 -0.15389 0.074989 -0.024905 0.023256 0.074304 -0.092987 0.019534 -0.037297 0.031839 -0.171172 -0.110506 -0.013032 0.332232 -0.079911 -0.01314 -0.037071 0.025779 -0.017508 0.050395 -0.286888 -0.054894 -0.138688 -0.069168 -0.030105 0.039104 0.123944 0.228465 -0.007949 -0.043718 -0.098081 0.008072 -0.150993 0.022541 0.02513 0.039361 0.053993 -0.112913 0.102398 -0.038062 0.002847 -0.513275 0.029045 -0.013176 0.027194 -0.024399 -0.014489 0.108479 -0.066085 0.007493 0.121691 0.02317 0.114727 -0.055607 0.008039 -0.107022 -0.057335 -0.022413 -0.102941 0.024708 -0.011201 -0.233886 0.097111 0.074143 -0.055082 0.026085 -0.018419 -0.064063 0.043659 0.042618 0.023252 -0.012898 0.003725 -0.014354 0.065811 -0.166493 -0.046433 -0.059385 -0.06141 0.038897 -0.064523 0.060581 -0.02621 -0.271628 -0.027581 0.331987 0.021908 -0.124011 0.106462 0.047869 0.00581 -0.062916 0.02947 0.038832 0.039166 -0.305384 0.092973 0.048563 0.139224 -0.074937 -0.085383 0.020474 0.112574 -0.079959 -0.068809 0.042515 0.016079 0.042492 -0.033448 -0.035188 -0.039148 0.042939 0.06576 -0.11173 -0.031831 -0.00976 -0.076614 0.637387 -0.027299 -0.232867 -0.064025 0.144221 0.059936 -0.021688 0.04978 0.014432 -0.202375 0.075036 -0.12124 -0.039041 0.021062 0.041591 0.16446 0.090496 -0.040124 -0.119913 -0.27719 0.007109 0.227146 0.178491 -0.066676
d 0.090819 -0.065946 0.009205 0.118769 -0.004969 0.000697 0.102856 -0.087931 -0.059375 0.574036 -0.106015 -0.001086 0.085858 -0.11454 -0.085567 -0.128028 0.062546 -0.045042 0.042015 0.049849 0.05444 -0.039611 -0.207389 -0.090538 0.149578 -0.016365 -0.028325 0.016491 0.043913 -0.02963 -0.020289 -0.167748 0.102734 -0.136291 0.470332 -0.014082 -0.088074 -0.014278 0.062363 0.042508 0.042219 0.071898 0.047793 -0.198671 -0.011651 0.002385 -0.067444 -0.115495 0.072546 -0.068396 -0.018776 0.063125 0.024223 -0.011101 0.029998 -0.131054 0.055813 -0.129842 -0.086947 0.134402 -0.063055 -0.04481 -0.201771 0.078738 0.048481 0.252592 -0.07063 -0.065817 -0.005064 0.067294 -0.038984 -0.012297 -0.021295 -0.047638 0.124829 -0.006617 -0.129613 -0.085294 0.075171 0.043697 0.014692 0.079005 0.015301 -0.120866 -0.058852 -0.010694 0.046649 -0.122301 0.00536 -0.009001 0.059409 -0.103297 0.181398 0.07559 -0.03931 -0.008265 0.19663 -0.00802 -0.024779 0.277056 0.035862 -0.027638 -0.024467 0.051339 0.020334 0.038864 -0.139099 -0.079448 0.087632 -0.071563 0.006328 0.210838 0.044862 0.093822 -0.096513 -0.098307 0.086719 -0.107782 -0.022696 0.242082 0.046237 0.024212 -0.027148 0.021857 0.058444 0.006546 -0.009372 -0.096927 -0.03708 0.002018 0.03539 -0.143322 -0.046162 0.030518 -0.008663 0.025554 0.016631 0.019569 -0.019013 -0.098614 0.05897 -0.016371 -0.085746 -0.095941 0.276475 -0.03579 -0.053775 0.023505 0.122901 -0.007207 -0.366923 0.00501 -0.066214 0.01851 -0.272387 -0.056869 0.138687 0.010442 -0.033884 0.05395 -0.161857 0.069418 -0.043736 0.029485 0.086582 -0.090251 0.012023 -0.026217 0.043188 -0.178783 -0.114655 -0.019426 0.323287 -0.079123 -0.005378 -0.04285 0.01994 -0.004116 0.064745 -0.280948 -0.047596 -0.131641 -0.054638 -0.02205 0.0377 0.107517 0.234642 -0.001488 -0.027634 -0.088266 0.011684 -0.149498 0.021678 0.019975 0.038141 0.051193 -0.120788 0.118094 -0.031189 -0.009478 -0.504149 0.016952 -0.012716 0.022862 -0.01538 -0.025639 0.105948 -0.0776 -0.007576 0.11675 0.020408 0.109003 -0.059821 0.008247 -0.10147 -0.05123 -0.01446 -0.098104 0.043985 0.001245 -0.218797 0.099987 0.071346 -0.054843 0.042325 -0.015578 -0.06077 0.044166 0.03397 0.021791 -0.006535 -0.000296 -0.014795 0.056254 -0.151578 -0.032414 -0.054484 -0.053438 0.030785 -0.071454 0.072378 -0.027285 -0.273379 -0.031668 0.318224 0.003119 -0.108867 0.106966 0.049197 0.014564 -0.060793 0.018695 0.027829 0.030344 -0.283265 0.0919 0.043777 0.157573 -0.07264 -0.070401 0.010466 0.10908 -0.083618 -0.05781 0.031907 0.011128 0.046002 -0.047639 -0.027741 -0.040393 0.031885 0.062399 -0.108374 -0.025586 -0.023762 -0.072436 0.615334 -0.02163 -0.244171 -0.066878 0.131854 0.054751 -0.020867 0.055294 0.006052 -0.19366 0.073733 -0.119598 -0.040115 0.009439 0.048177 0.154272 0.093452 -0.028443 -0.128288 -0.273356 0.004683 0.204231 0.17181 -0.069864
i 0.105174 -0.064379 0.014893 0.111335 -0.008455 -0.012761 0.085879 -0.101901 -0.053217 0.574177 -0.11266 0.018381 0.078293 -0.114852 -0.082277 -0.150698 0.077956 -0.038259 0.032643 0.065722 0.043579 -0.05013 -0.213222 -0.095928 0.16277 -0.017694 -0.022773 0.007745 0.04621 -0.043774 -0.027978 -0.163367 0.098781 -0.151174 0.480014 -0.005405 -0.07628 -0.026397 0.056259 0.036495 0.049139 0.065697 0.058352 -0.213973 -0.025895 -0.026794 -0.072975 -0.098052 0.064917 -0.064964 -0.00517 0.07329 0.033052 -0.014201 0.022175 -0.119414 0.043012 -0.136773 -0.084416 0.140482 -0.066829 -0.045588 -0.19395 0.071145 0.041643 0.278087 -0.075633 -0.058319 8.7e-05 0.081268 -0.049319 -0.025228 -0.015612 -0.070529 0.122345 -0.015642 -0.134082 -0.091674 0.087689 0.044037 0.018398 0.070033 0.001673 -0.117293 -0.064077 0.000532 0.056924 -0.12761 0.003565 -0.008115 0.051922 -0.108899 0.17606 0.073172 -0.022391 -0.001862 0.188859 -0.014655 -0.023179 0.279455 0.034468 -0.021302 -0.031014 0.04291 0.017509 0.040446 -0.156574 -0.094802 0.09623 -0.068473 0.024604 0.210335 0.046319 0.08734 -0.08695 -0.102881 0.098867 -0.10391 -0.032478 0.26158 0.055632 0.040525 -0.028902 0.025995 0.05971 -0.005952 -0.000943 -0.08695 -0.042358 -0.002508 0.03695 -0.156637 -0.03903 0.031796 -0.008444 0.025974 -0.002981 0.009311 -0.012652 -0.100381 0.058019 -0.022407 -0.084399 -0.10468 0.30682 -0.043606 -0.077796 0.016719 0.13514 0.00941 -0.374067 0.000635 -0.070203 0.018081 -0.283221 -0.057109 0.136723 0.020018 -0.056993 0.041231 -0.155361 0.080033 -0.032185 0.028551 0.080044 -0.09697 0.011898 -0.031685 0.032013 -0.169572 -0.110328 -0.013789 0.334335 -0.076506 -0.004904 -0.050694 0.019567 -0.009271 0.055685 -0.292344 -0.050124 -0.143613 -0.068007 -0.020697 0.026745 0.130442 0.237737 -0.001108 -0.034618 -0.099694 0.013621 -0.154351 0.021969 0.027905 0.03504 0.045357 -0.121055 0.112226 -0.041599 0.004893 -0.520288 0.031676 -0.014345 0.035525 -0.025667 -0.011502 0.104704 -0.070512 0.002899 0.127573 0.022791 0.110806 -0.045902 0.009054 -0.109758 -0.058393 -0.012367 -0.106218 0.028093 0.001723 -0.245273 0.099787 0.072563 -0.052402 0.023771 -0.016159 -0.069176 0.048489 0.035027 0.024292 -0.013987 0.002124 -0.007593 0.067376 -0.159822 -0.054319 -0.061105 -0.073669 0.03877 -0.064211 0.064515 -0.027393 -0.281596 -0.031146 0.32737 0.022147 -0.12079 0.114633 0.045647 0.016246 -0.061053 0.02582 0.033949 0.042765 -0.313951 0.096802 0.044287 0.146068 -0.073614 -0.080485 0.016976 0.111825 -0.084644 -0.063014 0.047668 0.019483 0.031128 -0.034305 -0.02909 -0.044035 0.0506 0.074301 -0.113843 -0.032219 -0.010664 -0.072371 0.63572 -0.025995 -0.230701 -0.072972 0.153018 0.060342 -0.019602 0.062888 0.024057 -0.208005 0.073813 -0.120717 -0.032291 0.020193 0.042422 0.159827 0.093852 -0.040759 -0.121274 -0.282558 -0.00519 0.219668 0.176172 -0.077999
" 0.6947 0.22184 0.10526 0.012382 -0.2558 -0.32645 -0.48287 0.51755 -0.0872 -2.0289 0.35021 0.045363 -0.58554 -0.16147 0.35592 -0.12698 -0.389 0.027275 0.10101 0.010271 0.30711 0.32771 0.11769 0.24432 0.23224 0.88493 0.084191 0.019132 0.41142 0.17872 0.28685 0.32401 -0.1452 0.13602 -1.0021 0.15376 0.27661 -0.24772 -0.62897 0.47619 -0.35871 -0.82761 -0.41504 0.43143 -0.008502 0.019796 0.30738 -0.06202 -0.41845 -0.006554 -0.5164 0.14782 -0.0714 0.14323 -0.012224 0.22951 -0.086194 0.29748 0.46222 -0.56759 0.2868 0.068718 0.25969 0.1065 -0.38421 -0.24288 0.3652 -0.28178 0.02779 0.21189 -0.21838 -0.26429 -0.2053 -0.050045 -0.14675 0.43928 0.12568 0.2448 0.23945 -0.13081 0.061735 0.44339 0.66748 -0.30867 0.31239 0.050992 -0.20818 0.53632 0.017549 -0.62452 -0.017933 -0.15915 0.04842 -0.18007 -0.2852 0.24385 0.04839 0.004917 0.070413 -0.25744 0.24731 0.076947 0.053461 0.36677 -0.17137 0.089144 -0.17755 -0.44276 0.58558 0.15683 0.04322 0.016737 0.026973 -0.44068 0.19796 -0.65142 0.003907 0.064482 -0.18919 -0.42223 0.37854 -0.46292 0.01278 -0.080519 0.26873 -0.56258 -0.15363 0.53182 -0.091645 -0.49802 -0.1925 0.18915 -0.17388 -0.14453 -0.033144 -0.13589 -0.52306 -0.60742 0.066981 0.049356 0.039682 0.70251 0.19068 -0.005327 0.026991 -0.45241 -0.11205 0.38563 -0.26384 0.66098 0.25433 -0.048764 -0.19554 0.21586 0.086974 -0.3031 0.23631 -0.12765 -0.013964 -0.5626 0.23265 -0.67844 0.083024 -0.33026 -0.83967 0.24366 -0.079742 -0.12785 -0.29069 0.075679 0.52596 0.26064 -0.17329 -0.27323 0.3122 0.32645 0.22285 0.86193 0.28423 -0.23161 0.50005 -0.081095 -0.14249 -0.33155 -0.39187 -0.33697 -0.28684 -0.077314 0.56339 0.14105 0.20169 0.53144 0.94135 -0.22078 -0.32236 -0.19445 -0.63195 -0.55729 -0.3093 -0.36269 1.3423 0.45712 0.095516 1.0522 -0.025737 -0.16478 -0.10284 0.49699 0.2979 0.084515 -0.37817 -0.32549 -0.25269 -0.19468 0.66512 -0.30682 0.27146 0.66712 0.28062 -0.63802 -0.20536 -0.058433 -0.3065 -0.10404 -0.35549 0.1365 0.071077 -0.24535 0.070016 -0.19833 -0.10835 -0.29371 -0.25792 -0.20339 -0.062024 -0.043849 -0.31949 -0.36047 -0.070991 -0.21235 -0.46852 -0.484 -0.16648 0.23164 -0.32893 0.087816 -0.081276 0.21032 0.40517 -0.051471 -0.091353 0.058312 -0.76205 0.39375 0.29967 -0.23293 0.19127 -0.21633 0.56827 0.014206 -0.16902 -0.53718 -0.20777 0.17868 -0.27838 -0.075129 -0.055254 -0.27411 0.019909 0.57986 0.077334 -0.046309 -0.286 -0.16093 0.30357 -0.11045 -1.8737 0.04662 0.88636 -0.074213 -0.21623 0.14911 -0.74491 0.15774 0.22384 -0.008555 0.065872 0.056001 0.37591 0.080234 -0.32401 -0.39791 -0.35475 -0.064987 -0.35959 0.27407 0.28326 0.34871 -0.63079 0.38089
' 0.156873 -0.074638 -0.014358 0.11527 -0.031851 0.068596 0.042674 -0.112526 -0.132206 0.628527 -0.077656 -0.04587 0.141036 -0.189007 -0.108402 -0.150043 0.094548 0.035663 0.053769 0.122921 0.018911 0.014496 -0.249733 -0.14328 0.242998 -8.6e-05 0.03819 -0.006276 0.155028 -0.135152 -0.040823 -0.227704 0.088351 -0.107696 0.464657 -0.060311 -0.01567 -0.055813 0.048079 -0.004436 0.001265 0.02335 0.086297 -0.166115 -0.093641 -0.032453 -0.025841 -0.0881 0.015826 -0.017955 -0.018382 0.12526 0.052847 -0.005692 0.056062 -0.085484 0.059795 -0.212303 -0.074415 0.061343 -0.131606 -0.042209 -0.310916 0.11409 0.008261 0.252178 -0.027189 -0.141187 -0.034296 -0.016856 -0.055227 -0.052989 -0.075117 -0.045798 0.032047 0.002877 -0.057326 -0.169655 0.092382 -0.04222 0.041101 0.134785 0.046434 -0.153403 -0.121139 -0.043555 0.064156 -0.091455 -0.026788 -0.038065 0.111215 -0.160639 0.192517 0.028891 -0.05544 0.017718 0.254351 -0.07033 -0.094755 0.302741 0.021417 0.016645 -0.018049 0.167979 0.073626 -0.004252 -0.232444 -0.096166 0.241692 -0.059835 0.008945 0.183568 0.135211 0.056582 -0.12346 -0.234808 0.162879 -0.057442 -0.049926 0.268548 0.070768 0.005272 -0.017668 -0.073903 0.044809 -0.063257 -0.016748 -0.032544 -0.092848 0.041177 0.034529 -0.195436 -0.165265 0.004481 -0.014366 -0.059545 -0.049668 -0.028353 -0.00492 -0.184829 0.008746 -0.011967 -0.052802 -0.13229 0.286207 -0.064782 -0.096583 0.006122 0.151349 0.040636 -0.33632 0.016706 -0.101728 0.024643 -0.323135 -0.155373 0.137442 0.013436 -0.051263 0.041197 -0.130791 0.041499 -0.120226 0.040841 0.045718 -0.115812 -0.000722 -0.142942 -0.027366 -0.134834 -0.145375 -0.009142 0.414363 -0.145961 0.050063 -0.016998 0.060066 0.004066 0.092307 -0.24392 -0.014064 -0.095327 -0.095353 -0.045608 0.037826 0.138979 0.190875 0.070226 -0.020117 -0.119473 0.027285 -0.161193 0.048425 0.024923 0.016698 0.011907 -0.172988 0.209369 -0.093845 -0.017245 -0.456376 0.094331 0.004779 0.058548 0.010921 -0.042061 0.127236 -0.058662 -0.010481 0.103962 -0.004061 0.102154 -0.056967 0.019717 -0.108546 -0.075668 -0.002179 -0.175477 0.085317 -0.106373 -0.249802 0.108712 0.077112 -0.012869 0.013527 -0.028612 -0.07768 0.042866 0.073904 0.022253 0.01275 -0.052185 -0.069195 0.045857 -0.142009 -0.111938 -0.069346 -0.09157 0.075207 -0.127036 -0.009751 -0.169944 -0.250724 -0.03317 0.401342 -0.027412 -0.184211 0.034408 0.030702 -0.064852 -0.020113 0.098237 0.096266 0.118942 -0.345119 0.065874 0.108597 0.177837 -0.049741 -0.153127 0.032645 0.119123 -0.192683 -0.014306 0.062383 -0.003532 0.063374 -0.039498 -0.047401 -0.037462 0.003642 0.092397 -0.112534 -0.012548 0.050995 -0.1033 0.72291 -0.004568 -0.315969 -0.05482 0.22 0.024018 -0.035274 -0.000394 0.076787 -0.170035 0.100221 -0.145486 -0.013703 0.036744 0.083715 0.194172 0.094103 -0.035701 -0.105403 -0.374774 0.030204 0.217242 0.181662 -0.090045
s 0.09529 -0.066531 0.005887 0.112942 -0.009623 0.006834 0.098468 -0.088784 -0.046822 0.580529 -0.117851 0.012855 0.075777 -0.11176 -0.074987 -0.145153 0.072046 -0.04426 0.034072 0.064786 0.044803 -0.040635 -0.205899 -0.089718 0.162738 -0.015822 -0.029346 0.02698 0.046526 -0.036051 -0.021234 -0.159746 0.084181 -0.152656 0.470202 -0.026742 -0.082966 -0.015961 0.06914 0.033259 0.033922 0.06128 0.040297 -0.209894 -0.006764 -0.018556 -0.060537 -0.114755 0.060311 -0.065219 -0.003408 0.054269 0.03125 -0.025223 0.012017 -0.10811 0.036345 -0.130406 -0.105871 0.147556 -0.062317 -0.047374 -0.187336 0.081919 0.046096 0.266402 -0.05769 -0.046709 -0.012841 0.070062 -0.032486 -0.016001 -0.034454 -0.053913 0.117356 -0.013277 -0.136508 -0.083697 0.076971 0.02342 0.008729 0.072283 0.001217 -0.119563 -0.065376 0.002917 0.063242 -0.124928 0.000473 -0.002135 0.061561 -0.100851 0.18343 0.076793 -0.038532 0.010318 0.184347 -0.006488 -0.025879 0.272563 0.045805 -0.024607 -0.035645 0.052718 0.003619 0.035179 -0.148432 -0.088741 0.086901 -0.069694 0.011483 0.194642 0.040795 0.092085 -0.107564 -0.093562 0.091856 -0.09611 -0.033136 0.252375 0.058384 0.019201 -0.025373 0.038998 0.049279 0.014627 -0.008625 -0.079548 -0.035891 -0.00477 0.028468 -0.152323 -0.039507 0.035774 -0.01667 0.012982 0.004279 0.025857 -0.00369 -0.109492 0.054351 -0.016533 -0.079121 -0.092462 0.296432 -0.032049 -0.069651 0.019411 0.136414 0.006412 -0.380506 0.000558 -0.068291 0.026172 -0.273497 -0.057153 0.117347 0.010305 -0.038191 0.035441 -0.158937 0.092279 -0.035961 0.03085 0.074806 -0.072053 0.006965 -0.028167 0.032797 -0.1732 -0.111177 -0.015217 0.327235 -0.063169 -0.006106 -0.052754 0.015984 0.000614 0.060655 -0.278461 -0.040268 -0.151012 -0.052432 -0.021827 0.032617 0.118296 0.245459 0.001719 -0.00653 -0.109226 0.006198 -0.158843 0.026762 0.019299 0.050779 0.047323 -0.118828 0.112492 -0.029074 0.002945 -0.508561 0.037503 -0.014923 0.029593 -0.026959 -0.01901 0.10171 -0.075801 -0.019001 0.101832 0.032226 0.121043 -0.051004 0.017048 -0.110514 -0.05936 0.004474 -0.089499 0.019825 -0.015957 -0.225281 0.108551 0.07696 -0.058522 0.016985 -0.02374 -0.074607 0.059641 0.043952 0.023647 -0.016623 -0.003737 -0.00666 0.055354 -0.153214 -0.034101 -0.054765 -0.065301 0.008393 -0.070997 0.052566 -0.019227 -0.265563 -0.024216 0.30741 -0.006166 -0.120229 0.122006 0.052695 0.008421 -0.066124 0.017146 0.037612 0.04492 -0.310492 0.094796 0.04996 0.140599 -0.079129 -0.068756 0.028711 0.102065 -0.071054 -0.059364 0.053275 0.012868 0.026888 -0.046348 -0.033575 -0.03688 0.058781 0.079983 -0.108945 -0.026611 -0.013419 -0.061953 0.619383 -0.015374 -0.241504 -0.076216 0.144227 0.06531 -0.022019 0.075371 0.014929 -0.192451 0.07175 -0.116054 -0.026014 0.00683 0.033146 0.141354 0.079811 -0.048644 -0.131103 -0.299455 -0.014846 0.204225 0.188039 -0.078206
r 0.097983 -0.066439 0.002819 0.113455 -0.006461 -0.006782 0.091161 -0.102894 -0.055695 0.591577 -0.105591 0.000204 0.090707 -0.116616 -0.08647 -0.136504 0.069335 -0.03457 0.035709 0.060013 0.053922 -0.05096 -0.20832 -0.091378 0.159369 -0.016015 -0.025623 0.02219 0.04517 -0.047323 -0.024624 -0.168889 0.098791 -0.13479 0.475244 -0.019835 -0.08194 -0.01867 0.061714 0.038504 0.042436 0.075954 0.05715 -0.203371 -0.020831 -0.016838 -0.06921 -0.108207 0.073135 -0.076842 -0.015197 0.06707 0.028046 -0.003289 0.031208 -0.12529 0.036372 -0.126994 -0.097817 0.133779 -0.078104 -0.05482 -0.1945 0.068714 0.049582 0.26021 -0.07739 -0.06641 -0.001689 0.05764 -0.039916 -0.013825 -0.01607 -0.05833 0.110605 -0.021747 -0.138721 -0.094385 0.083917 0.03507 0.018165 0.081928 0.002955 -0.125293 -0.064782 -0.000584 0.056517 -0.11465 -0.0056 -0.021314 0.069605 -0.106553 0.184209 0.066301 -0.031607 -0.008739 0.19676 -0.020547 -0.029839 0.273447 0.027645 -0.023448 -0.033333 0.047326 0.023633 0.03254 -0.149842 -0.082874 0.096792 -0.067137 0.017036 0.208757 0.051814 0.096115 -0.110266 -0.111554 0.096813 -0.110102 -0.033227 0.254873 0.055149 0.037408 -0.026389 0.011237 0.05636 -0.004955 0.009379 -0.095411 -0.043534 -0.000258 0.037003 -0.143962 -0.053596 0.032306 -0.002774 0.025196 0.007287 0.020587 -0.012216 -0.110869 0.058906 -0.024699 -0.076803 -0.104528 0.291586 -0.034705 -0.06723 0.013114 0.120456 0.004015 -0.370575 0.012024 -0.064502 0.008298 -0.272901 -0.061054 0.129483 0.009029 -0.051099 0.049357 -0.154123 0.068212 -0.027738 0.028959 0.074731 -0.081972 0.017001 -0.031464 0.040503 -0.166677 -0.107445 -0.016084 0.340382 -0.074805 -0.005064 -0.034639 0.023369 -0.013026 0.059719 -0.289475 -0.050295 -0.13199 -0.067802 -0.024972 0.042523 0.112227 0.226958 -0.001999 -0.032536 -0.092424 0.006642 -0.140577 0.020313 0.024258 0.036488 0.05395 -0.112594 0.113079 -0.033174 -0.003463 -0.51054 0.031518 -0.012163 0.027684 -0.015431 -0.021777 0.102809 -0.070465 0.000563 0.111576 0.028655 0.107083 -0.053539 0.003585 -0.106316 -0.053935 -0.018032 -0.104276 0.026522 -0.017423 -0.232002 0.095993 0.076347 -0.052213 0.024886 -0.016137 -0.064557 0.046493 0.043699 0.020768 -0.017614 0.002959 -0.008917 0.061519 -0.161556 -0.038595 -0.055261 -0.051188 0.036294 -0.071587 0.061128 -0.038111 -0.269684 -0.036992 0.334014 0.010819 -0.122545 0.103257 0.044659 0.003199 -0.065885 0.025493 0.027751 0.045341 -0.295618 0.094905 0.051802 0.145945 -0.063171 -0.076969 0.019022 0.114554 -0.08314 -0.06363 0.04066 0.01288 0.043012 -0.032011 -0.032199 -0.045994 0.0382 0.061947 -0.10585 -0.03401 -0.009542 -0.074806 0.643643 -0.027358 -0.24529 -0.066696 0.143376 0.064793 -0.020982 0.055851 0.012386 -0.198449 0.074753 -0.121653 -0.036332 0.017097 0.048631 0.159465 0.090123 -0.034966 -0.125018 -0.2862 0.00327 0.223983 0.180667 -0.060915
- 0.095255 -0.071134 -0.024248 0.113431 -0.07953 0.086275 0.091049 -0.08778 -0.029723 0.741414 -0.164901 0.105067 0.094344 -0.174771 -0.105468 -0.197913 0.138335 -0.000184 -0.005738 0.015786 -0.036871 -0.119854 -0.246415 -0.03148 0.275686 -0.115216 -0.054223 0.028198 0.026874 -0.079983 -0.112396 -0.249949 0.094613 -0.161191 0.537836 0.04243 -0.147378 0.053282 0.097413 0.163313 0.061496 0.116265 0.05985 -0.230041 0.012078 0.092856 -0.044343 -0.16161 0.073231 -0.067662 -0.04465 0.109593 -0.008737 -0.053526 0.07831 -0.232474 0.082708 -0.174567 -0.111393 0.197803 -0.138685 -0.049282 -0.260164 -0.000225 0.07681 0.322969 -0.066092 -0.098527 -0.003603 0.11556 -0.032556 0.073691 -0.052254 -0.083245 0.096212 0.00464 -0.178627 -0.059832 0.088107 0.025099 -0.064186 0.106489 -0.047398 -0.184163 -0.068111 -0.014998 0.085794 -0.158279 0.026897 0.023963 0.122836 -0.124944 0.238926 0.062847 0.009819 -0.075301 0.21754 -0.033203 -0.050741 0.298477 -0.063995 0.047752 -0.002081 0.067224 -0.006638 -0.029574 -0.197987 -0.092526 0.075724 -0.16539 0.05524 0.259468 0.029672 0.117629 -0.078508 -0.135212 0.124542 -0.036504 0.001108 0.313487 0.06879 0.097928 0.020948 0.068266 0.042593 0.050406 0.011533 -0.129155 -0.052147 -0.021547 0.06168 -0.114853 -0.076235 0.015141 0.001461 0.09819 -0.026166 0.116321 2e-06 -0.054017 0.038892 -0.050495 -0.149817 -0.143467 0.235963 -0.004058 -0.127249 0.048357 0.20884 0.04238 -0.360155 -0.03209 -0.049164 -0.00477 -0.228577 -0.053984 0.069509 0.089433 -0.073252 0.054197 -0.245039 0.197659 -0.076085 0.040948 0.083841 -0.076179 -0.015782 -0.016484 0.005587 -0.171133 -0.092817 -0.098828 0.367712 -0.065175 -0.038012 -0.096319 0.000726 -0.013412 0.066877 -0.330743 -0.045208 -0.221769 -0.011681 0.015553 0.000468 0.095694 0.286745 0.067647 -0.107873 -0.185046 -0.014706 -0.101814 -0.020116 0.018067 0.081799 0.004462 -0.142239 0.157494 -0.03962 0.028757 -0.575743 0.114279 -0.013997 -0.067172 -0.027212 -0.051129 0.077954 -0.120182 -0.075622 0.171746 0.053275 0.121054 -0.129751 0.078523 -0.167944 -0.057657 -0.101516 -0.108664 0.076454 0.107153 -0.216442 0.070989 0.078299 0.000355 -0.001076 -0.014559 -0.076559 0.036933 0.027993 0.072947 0.000384 0.017068 -0.01102 0.034273 -0.093353 -0.040453 -0.030201 -0.056173 0.083508 -0.003536 0.132697 -0.026826 -0.30767 -0.069385 0.291841 -0.025973 -0.131195 0.2125 0.078791 -0.001945 -0.094374 0.054212 0.103489 0.022863 -0.361109 0.127665 -0.015031 0.23164 -0.099974 0.052975 0.006072 0.127473 -0.030147 -0.033862 0.025762 0.00886 0.030583 -0.069955 0.065913 -0.077154 0.07146 0.048248 -0.108876 -0.024144 -0.01482 -0.11339 0.693033 0.094491 -0.269851 -0.028591 0.19589 -0.031688 -0.023821 0.079232 0.015896 -0.208305 0.007508 -0.143708 -0.059743 0.014593 0.020781 0.16327 -0.044666 -0.017658 -0.085449 -0.294832 -0.064948 0.216899 0.263234 -0.10965
w 0.079308 -0.094612 0.010884 0.122042 0.016812 -0.015121 0.117853 -0.087533 -0.059044 0.643626 -0.113544 -0.006466 0.108714 -0.094564 -0.071556 -0.107772 0.074754 -0.057308 0.050719 0.065871 0.060743 -0.069002 -0.219745 -0.087509 0.159204 0.006545 -0.057061 0.036143 0.038026 -0.0384 0.005971 -0.212883 0.100701 -0.096018 0.465055 -0.004795 -0.099014 -0.020814 0.06103 0.010702 0.056155 0.088096 0.063308 -0.148121 -0.019221 -0.011777 -0.068054 -0.165233 0.078606 -0.094445 -0.024945 0.068028 0.009098 -0.023628 0.01905 -0.117458 0.064867 -0.141336 -0.123947 0.125026 -0.055565 -0.058389 -0.209214 0.068301 0.082144 0.269262 -0.081864 -0.057045 -0.011359 0.05875 -0.034789 -0.025878 -0.024083 -0.051124 0.108033 -0.015406 -0.153688 -0.072156 0.079798 0.012655 -0.007899 0.081914 -0.006506 -0.141021 -0.067502 -0.023901 0.071153 -0.133339 0.000695 -0.024666 0.083389 -0.124418 0.214124 0.0602 -0.048858 -0.029268 0.205955 -0.03012 -0.019696 0.253312 0.007965 -0.03869 -0.02247 0.060799 0.030635 0.017001 -0.119871 -0.092226 0.107064 -0.063415 0.008553 0.18937 0.036433 0.109801 -0.108431 -0.089717 0.087755 -0.080343 -0.024984 0.226452 0.041827 0.042478 -5.7e-05 0.008485 0.050876 0.016388 -0.019226 -0.105194 -0.056495 -0.030359 0.031335 -0.122043 -0.054366 0.005612 -0.026067 0.030796 -0.007073 0.030739 -0.012416 -0.112033 0.055952 -0.035576 -0.054138 -0.123744 0.268848 -0.000139 -0.069974 0.023255 0.129736 -0.011699 -0.367357 0.028804 -0.06497 -0.014188 -0.255982 -0.063564 0.135851 0.009305 -0.026984 0.062645 -0.151137 0.069199 -0.035031 0.020543 0.057098 -0.079942 0.031421 -0.047112 0.012481 -0.191484 -0.130493 -0.014107 0.342489 -0.068947 -0.011246 -0.001197 0.038058 -0.032718 0.086698 -0.295912 -0.072696 -0.141482 -0.062237 -0.05555 0.079351 0.120666 0.245746 -0.030909 -0.038435 -0.102004 0.015972 -0.135449 0.017331 0.024413 0.025499 0.063477 -0.066459 0.078034 -0.053569 -0.016868 -0.497389 0.015587 -0.02551 0.010116 -0.046309 -0.012707 0.117572 -0.102653 0.004296 0.08152 0.02372 0.089156 -0.081764 -0.002962 -0.115674 -0.064543 -0.065107 -0.07115 0.031235 -0.039991 -0.209772 0.096931 0.087781 -0.050269 0.048771 -0.019692 -0.075207 0.034476 0.044608 0.042614 -0.020103 0.008285 0.011675 0.045088 -0.157909 -0.042925 -0.05556 -0.049367 0.048522 -0.093931 0.059151 -0.013923 -0.292495 -0.049974 0.354538 -0.013593 -0.157439 0.108214 0.063145 0.005814 -0.075502 0.029399 0.02464 0.048409 -0.29008 0.070398 0.035831 0.128865 -0.085277 -0.09737 0.016302 0.108118 -0.084275 -0.087162 0.026444 0.021049 0.070685 -0.021146 -0.053499 -0.018115 0.012075 0.069016 -0.08528 -0.055084 -0.027043 -0.086854 0.663849 0.016949 -0.252841 -0.081666 0.114082 0.055234 -0.021601 0.027242 0.009648 -0.2151 0.077428 -0.160046 -0.060795 -0.001989 0.039762 0.171637 0.067159 -0.031982 -0.129234 -0.297007 0.008394 0.256556 0.183792 -0.026884
b 0.09416 -0.069956 0.005952 0.124579 0.000526 -0.012164 0.101095 -0.091329 -0.062348 0.627308 -0.104803 -0.011522 0.097326 -0.10089 -0.079261 -0.128782 0.07598 -0.038693 0.046555 0.064682 0.068364 -0.0533 -0.211962 -0.10302 0.143899 -0.011947 -0.030639 0.014397 0.048707 -0.05033 -0.021588 -0.184756 0.099272 -0.121754 0.484063 -0.018578 -0.079678 -0.010092 0.056692 0.026279 0.046065 0.073783 0.055579 -0.18861 -0.026717 -0.021187 -0.081227 -0.129027 0.079778 -0.080815 -0.016487 0.076194 0.016954 -0.003315 0.033818 -0.12764 0.039895 -0.130821 -0.093461 0.127515 -0.07657 -0.059257 -0.208754 0.063843 0.063803 0.261467 -0.079105 -0.062779 -0.012807 0.056846 -0.040701 -0.019102 -0.015256 -0.060944 0.114205 -0.032721 -0.132314 -0.092827 0.09486 0.03611 0.032443 0.073373 0.008368 -0.120405 -0.070413 -0.008291 0.052335 -0.122184 -0.008303 -0.029223 0.071282 -0.105853 0.190201 0.071903 -0.025315 0.002356 0.205894 -0.018988 -0.028684 0.276352 0.028122 -0.031939 -0.01924 0.045528 0.025631 0.036675 -0.13543 -0.08271 0.098772 -0.066778 0.010893 0.20366 0.056831 0.103421 -0.103879 -0.105313 0.09095 -0.107324 -0.022057 0.252367 0.050721 0.03267 -0.017131 0.009987 0.051524 -0.003925 0.005943 -0.097346 -0.043861 -0.006718 0.021286 -0.149933 -0.058758 0.028047 0.003234 0.022973 0.009294 0.019801 -0.015786 -0.122033 0.061013 -0.023186 -0.071911 -0.112738 0.301248 -0.028467 -0.067787 0.004286 0.110794 0.002724 -0.387836 0.018547 -0.068938 0.00375 -0.282026 -0.060753 0.145585 0.001873 -0.052907 0.063297 -0.157637 0.075096 -0.02965 0.02966 0.069976 -0.09559 0.025987 -0.032132 0.035139 -0.184716 -0.12584 -0.015493 0.357443 -0.076461 -0.015274 -0.026232 0.023829 -0.024005 0.060267 -0.290212 -0.052501 -0.125119 -0.075801 -0.035291 0.048601 0.115668 0.235145 -0.01057 -0.036742 -0.080634 0.027482 -0.136347 0.022799 0.028104 0.033659 0.060867 -0.10043 0.114429 -0.043354 -0.003106 -0.515593 0.025945 -0.018511 0.029906 -0.030265 -0.031743 0.114764 -0.07856 0.007904 0.104961 0.021535 0.106628 -0.058412 0.000789 -0.09785 -0.057415 -0.024469 -0.107906 0.024288 -0.033575 -0.235116 0.101118 0.087605 -0.056053 0.041636 -0.019779 -0.074497 0.041059 0.044845 0.021682 -0.019624 -0.003844 -0.012125 0.061619 -0.156508 -0.040709 -0.062938 -0.054702 0.04818 -0.087306 0.068916 -0.034964 -0.282858 -0.038695 0.36704 0.013673 -0.139511 0.099558 0.03448 -0.001202 -0.064974 0.022692 0.025061 0.043082 -0.299915 0.094431 0.044607 0.143518 -0.071844 -0.095344 0.023664 0.123405 -0.09362 -0.071522 0.037436 0.010779 0.05603 -0.034615 -0.050283 -0.040742 0.026805 0.061278 -0.107072 -0.042141 -0.018576 -0.080866 0.671918 -0.025894 -0.2732 -0.066542 0.139119 0.068699 -0.031583 0.042921 0.002952 -0.201214 0.079686 -0.12441 -0.040462 0.013473 0.049234 0.172965 0.101736 -0.038499 -0.137211 -0.28531 0.009852 0.227971 0.177852 -0.05605
y 0.087911 -0.075052 0.027806 0.114634 -0.006479 -0.017686 0.117726 -0.109186 -0.057056 0.60082 -0.095302 -0.00855 0.089346 -0.100324 -0.078465 -0.124845 0.066535 -0.045075 0.040032 0.057094 0.048098 -0.053691 -0.23572 -0.092632 0.146345 -0.00478 -0.024471 -0.007458 0.042751 -0.0337 -0.021664 -0.176202 0.100538 -0.136534 0.475588 0.016328 -0.088292 -0.017128 0.047657 0.021087 0.057973 0.078369 0.055645 -0.199268 -0.027905 -0.016596 -0.081732 -0.127605 0.062902 -0.074363 -0.004912 0.074352 0.029642 -0.019661 0.032911 -0.128758 0.05319 -0.134922 -0.106598 0.120229 -0.051508 -0.041906 -0.190438 0.077618 0.04704 0.259224 -0.087316 -0.049243 0.008288 0.086838 -0.06186 -0.036232 -0.024839 -0.045758 0.124614 -0.029187 -0.145076 -0.079024 0.092857 0.049535 0.025446 0.073131 0.002961 -0.130747 -0.064585 0.000246 0.067074 -0.116948 0.013347 -0.020975 0.061757 -0.094722 0.174596 0.073155 -0.041701 -0.003826 0.204046 -0.004822 -0.01723 0.27752 0.036426 -0.030025 -0.019675 0.064337 0.022176 0.059095 -0.137085 -0.099127 0.092798 -0.068254 0.010414 0.21757 0.058479 0.119236 -0.093955 -0.102894 0.092037 -0.114356 -0.013967 0.249163 0.02991 0.032418 -0.032853 0.019467 0.063063 -0.001913 0.000969 -0.102224 -0.042085 -0.002471 0.035284 -0.136562 -0.040797 0.027955 -0.010644 0.033718 0.002511 0.016484 -0.018107 -0.098829 0.073329 -0.039473 -0.068974 -0.120568 0.289019 -0.033019 -0.074724 0.029249 0.131591 -0.006486 -0.388354 -0.002056 -0.06773 0.016633 -0.272443 -0.053242 0.127629 0.00252 -0.042844 0.057596 -0.156239 0.067131 -0.015405 0.014372 0.072288 -0.095013 0.006184 -0.021885 0.046073 -0.180974 -0.123946 -0.016522 0.333593 -0.080101 -0.011665 -0.033563 0.00872 -0.035536 0.048217 -0.29514 -0.05844 -0.129148 -0.072471 -0.038638 0.050076 0.133717 0.243127 -0.005662 -0.03808 -0.074834 0.007534 -0.158506 0.019718 0.03223 0.022122 0.055655 -0.113337 0.10617 -0.055939 -0.014874 -0.505254 0.014822 -0.015916 0.033864 -0.034 -0.015527 0.118745 -0.07762 0.001361 0.114188 0.026253 0.098595 -0.059384 0.001935 -0.115192 -0.060336 -0.026587 -0.112145 0.033118 -0.016965 -0.238452 0.115604 0.072769 -0.0522 0.033216 -0.003196 -0.072146 0.049218 0.026532 0.039258 -0.021544 0.002252 -0.006449 0.056438 -0.187491 -0.026519 -0.062899 -0.076502 0.037345 -0.064061 0.085155 -0.026089 -0.289629 -0.013556 0.34726 0.000669 -0.133174 0.106932 0.041543 0.010201 -0.055787 0.025322 0.012383 0.030556 -0.283508 0.08756 0.037097 0.158711 -0.071434 -0.091454 0.003731 0.125741 -0.095607 -0.07526 0.028792 0.012821 0.062639 -0.043773 -0.018434 -0.034263 0.045798 0.06116 -0.100671 -0.026615 -0.019679 -0.071888 0.660462 -0.030535 -0.253044 -0.081018 0.144286 0.065015 -0.005828 0.043625 -0.005001 -0.197042 0.062812 -0.119414 -0.065609 0.016173 0.052998 0.179719 0.098317 -0.052803 -0.123221 -0.28677 0.013846 0.22811 0.171764 -0.057861
( 0.085683 -0.25578 -0.00671 0.268406 0.510813 0.055605 0.214032 -0.213787 -0.135694 0.682013 0.299154 0.060909 0.109142 0.118809 0.056475 -0.350062 0.023804 -0.116175 0.062826 0.12756 -0.29145 -0.237158 -0.596285 -0.2677 0.042054 -0.086907 -0.021789 0.151625 0.239634 0.372282 0.280049 -0.245049 -0.126211 -0.472462 0.694991 -0.31306 0.082806 -0.216043 0.206682 -0.137195 -0.103298 0.7413 -0.296828 0.11638 -0.155875 -0.034789 0.175508 0.21281 -0.01006 0.093302 0.188255 -0.027678 0.179222 -0.086821 -0.089815 -0.168777 0.030107 -0.178387 -0.274353 -0.216728 0.245163 -0.364101 -0.332788 0.183503 -0.190206 0.058115 0.246549 -0.000791 0.189072 -0.046858 -0.163404 -0.256677 0.309937 0.145789 -0.024723 0.081621 -0.150389 0.114524 0.147414 -0.256879 0.163538 0.067781 0.079491 -0.030922 -0.52846 -0.14653 -0.174902 0.309507 -0.110808 0.167678 0.013459 -0.731935 0.148677 0.11261 0.315618 0.15808 0.075391 0.20626 0.222283 0.259273 0.260216 -0.09378 0.097839 0.256594 -0.004872 -0.265373 0.181613 -0.062175 -0.02724 -0.011916 0.114098 0.115366 -0.287425 0.144475 -0.370626 -0.167492 -0.187741 -0.054075 0.078735 0.45597 0.209649 0.322658 0.442258 -0.267325 0.267442 0.155833 -0.04926 -0.362278 -0.10475 -0.136826 0.041715 -0.013228 -0.018703 0.191412 0.053849 0.072148 0.108313 0.301533 0.287886 -0.144807 0.234431 -0.040424 0.038261 -0.003544 -0.020171 -0.180447 -0.39311 -0.026995 0.237911 -0.158371 -0.209011 -0.003901 0.044052 -0.418863 -0.36298 -0.026513 0.302552 0.081747 -0.302892 -0.056422 -0.100214 0.145801 -0.325619 0.080014 0.18612 0.019721 -0.394842 -0.386284 -0.238776 -0.268477 -0.205149 -0.074332 0.207811 -0.157137 0.424694 -0.348802 0.146341 -0.107423 0.087063 -0.502899 -0.669344 -0.25899 -0.174788 -0.079622 -0.165129 0.037138 0.540202 -0.311245 -0.483916 -0.379562 0.058318 -0.097595 0.317244 0.073049 0.01731 0.260817 0.188636 -0.428166 -0.082883 -0.029736 -0.644067 -0.105748 -0.058745 -0.351022 -0.015362 0.106802 0.024807 -0.302479 -0.336635 -0.252478 -0.348886 -0.203774 0.076859 -0.273827 -0.363477 -0.114331 0.092649 0.116156 -0.008387 0.381474 0.110023 0.372881 0.139143 -0.125017 -0.131281 -0.447559 0.211577 -0.154284 0.150983 0.061877 -0.115823 0.000299 0.530345 -0.18459 0.156184 -0.467302 0.171795 0.425476 0.163009 -0.186898 -0.129483 0.266846 -0.24074 -0.199119 0.529115 -0.02495 -0.030248 0.276309 0.131875 0.228635 0.282954 0.317592 -0.039238 0.05123 -0.331935 0.081942 0.170129 0.081958 0.018003 -0.076063 -0.276439 -0.595135 -0.074752 0.221093 -0.049481 0.077763 0.586285 0.335452 -0.112737 0.26819 -0.519116 -0.172575 0.302891 -0.118323 0.027821 0.2844 0.713652 0.435564 -0.419873 -0.273213 0.161129 -0.036853 0.117492 -0.458665 0.095505 -0.198158 0.297761 -0.384209 -0.254087 -0.151529 0.125099 -0.179717 -0.236051 0.391106 0.30397 -0.525585 -0.404675 0.175706 0.01334 0.377885
) 0.085371 -0.260065 0.0014 0.263294 0.509979 0.056835 0.203455 -0.217611 -0.134134 0.679706 0.291005 0.06626 0.102503 0.119731 0.057157 -0.344224 0.016709 -0.107847 0.062124 0.119044 -0.285467 -0.234838 -0.599511 -0.25879 0.040802 -0.090069 -0.031995 0.147199 0.236131 0.373296 0.277548 -0.239213 -0.124835 -0.470572 0.700044 -0.311987 0.080653 -0.225762 0.197208 -0.129046 -0.098483 0.744434 -0.29072 0.117388 -0.157125 -0.035261 0.174609 0.226201 -0.018823 0.096883 0.193907 -0.032487 0.194176 -0.089161 -0.087715 -0.169683 0.043946 -0.17182 -0.273995 -0.21467 0.246879 -0.370558 -0.330421 0.173042 -0.201207 0.04953 0.245059 0.003652 0.191795 -0.033385 -0.161167 -0.255898 0.303259 0.149688 -0.028861 0.075381 -0.147276 0.109256 0.139665 -0.252086 0.165884 0.058318 0.081117 -0.041577 -0.523414 -0.14913 -0.173209 0.312392 -0.113324 0.178126 0.008254 -0.721947 0.149929 0.115434 0.311593 0.161786 0.069281 0.195087 0.221623 0.268691 0.262751 -0.092074 0.083772 0.25577 0.007803 -0.262168 0.179376 -0.059437 -0.022217 -0.00923 0.116211 0.11435 -0.293284 0.136837 -0.368463 -0.163129 -0.195761 -0.058314 0.08076 0.455065 0.21777 0.314245 0.445994 -0.263654 0.269174 0.159191 -0.044051 -0.360188 -0.108119 -0.152175 0.046855 -0.006129 -0.013072 0.195223 0.063558 0.064853 0.107474 0.299666 0.288489 -0.153001 0.231754 -0.039177 0.041293 -0.003824 -0.014943 -0.175394 -0.387805 -0.022169 0.241074 -0.147672 -0.2105 -0.018042 0.038706 -0.422624 -0.357042 -0.025657 0.307933 0.079239 -0.304799 -0.05091 -0.092967 0.160414 -0.32843 0.082113 0.185325 0.019871 -0.398237 -0.385099 -0.238945 -0.263101 -0.206896 -0.069398 0.206608 -0.154179 0.420837 -0.35179 0.145407 -0.10566 0.096127 -0.496648 -0.662826 -0.264411 -0.177008 -0.07595 -0.166254 0.031925 0.535467 -0.307625 -0.477651 -0.375907 0.056872 -0.099534 0.323171 0.077098 0.015642 0.257668 0.185617 -0.416813 -0.074488 -0.025099 -0.639165 -0.108487 -0.064637 -0.354468 -0.006609 0.110227 0.024825 -0.297977 -0.335327 -0.251408 -0.356507 -0.201613 0.085874 -0.280981 -0.349111 -0.108835 0.101394 0.1179 -0.012581 0.383388 0.120471 0.373574 0.137078 -0.132234 -0.127292 -0.440029 0.209441 -0.144144 0.161273 0.060776 -0.126778 -0.008941 0.531015 -0.193679 0.151555 -0.468645 0.172027 0.418571 0.169559 -0.182054 -0.114803 0.26648 -0.237852 -0.188585 0.530658 -0.023312 -0.028134 0.284829 0.132995 0.214445 0.284791 0.306253 -0.036715 0.042861 -0.333421 0.081843 0.172458 0.079979 0.021727 -0.075996 -0.275551 -0.58752 -0.06682 0.21056 -0.058747 0.081046 0.585741 0.333436 -0.109623 0.265425 -0.518258 -0.184319 0.306569 -0.119134 0.040568 0.285463 0.708566 0.430793 -0.416853 -0.270129 0.172667 -0.033023 0.12184 -0.456183 0.089189 -0.190947 0.289418 -0.394795 -0.250652 -0.152525 0.126026 -0.181517 -0.234194 0.385139 0.301035 -0.529205 -0.394286 0.18544 0.019728 0.362227
m 0.096966 -0.066711 0.007148 0.119874 -0.005159 -0.018637 0.101903 -0.098978 -0.059483 0.605198 -0.105282 -0.000312 0.090131 -0.117179 -0.075959 -0.140051 0.079029 -0.030909 0.030055 0.057045 0.056292 -0.063316 -0.214462 -0.101083 0.165638 -0.006842 -0.018529 0.012959 0.053731 -0.052663 -0.016098 -0.181448 0.106082 -0.134901 0.491602 -0.015165 -0.072881 -0.015858 0.060539 0.037596 0.043278 0.079391 0.055715 -0.198105 -0.029888 -0.027211 -0.080866 -0.122899 0.078549 -0.075374 -0.01534 0.079221 0.014919 -0.004862 0.028541 -0.1225 0.047154 -0.133003 -0.094829 0.133739 -0.076323 -0.042813 -0.200255 0.068006 0.054433 0.273414 -0.086662 -0.060949 -0.009939 0.071944 -0.04423 -0.022984 -0.014465 -0.06814 0.113812 -0.019818 -0.125725 -0.108386 0.0948 0.041116 0.026315 0.079749 0.000114 -0.124589 -0.075013 0.003311 0.049771 -0.123097 0.005354 -0.02485 0.053972 -0.117057 0.180845 0.06217 -0.020833 -0.009043 0.198233 -0.021956 -0.017556 0.279832 0.031117 -0.020132 -0.016305 0.048481 0.028942 0.035045 -0.138354 -0.084289 0.096321 -0.077949 0.018328 0.209325 0.052298 0.10219 -0.100836 -0.109872 0.098756 -0.102023 -0.027906 0.25895 0.052759 0.037618 -0.027818 0.013667 0.060067 -0.002219 0.008288 -0.094814 -0.042182 0.001543 0.033867 -0.148939 -0.050067 0.029631 -0.000546 0.018739 0.001171 0.014094 -0.009449 -0.105425 0.056234 -0.026566 -0.07712 -0.116141 0.299823 -0.037115 -0.074127 0.016077 0.127157 0.006429 -0.36954 0.007135 -0.062944 0.015786 -0.284364 -0.055003 0.139519 0.010762 -0.059036 0.05 -0.157809 0.080439 -0.0325 0.025499 0.073564 -0.091528 0.016168 -0.036594 0.022015 -0.176914 -0.115952 -0.021891 0.353076 -0.077413 -0.006734 -0.033124 0.020537 -0.013699 0.059049 -0.295657 -0.059263 -0.128574 -0.074013 -0.029568 0.031362 0.121825 0.231903 0.001439 -0.037348 -0.08563 0.018526 -0.142853 0.021115 0.038435 0.027212 0.056217 -0.101305 0.119934 -0.040367 -0.004496 -0.516423 0.028643 -0.013312 0.033706 -0.026628 -0.025091 0.106843 -0.077182 -0.000842 0.111081 0.021943 0.104146 -0.05693 -0.001453 -0.114548 -0.058141 -0.031515 -0.105037 0.034162 -0.011445 -0.243565 0.096758 0.078772 -0.049915 0.0296 -0.015761 -0.068142 0.042952 0.037827 0.034905 -0.007835 0.004658 -0.007981 0.062612 -0.147977 -0.049977 -0.054435 -0.067285 0.050638 -0.074248 0.070426 -0.034081 -0.288322 -0.045478 0.35349 0.016369 -0.133764 0.105998 0.040188 0.013258 -0.062659 0.033469 0.019012 0.054239 -0.31969 0.090476 0.047196 0.147686 -0.072993 -0.082419 0.018907 0.112543 -0.087902 -0.076639 0.040057 0.012739 0.04945 -0.022849 -0.029303 -0.044174 0.03054 0.064283 -0.102165 -0.042941 -0.00944 -0.076493 0.667401 -0.021072 -0.254343 -0.069886 0.149994 0.049709 -0.027854 0.051406 0.010404 -0.205123 0.073233 -0.129858 -0.03753 0.02075 0.046831 0.169929 0.090794 -0.042291 -0.13259 -0.281795 0.005222 0.224299 0.170665 -0.07079
` -0.1643 -0.226266 -0.091624 -0.010104 -0.11052 -0.049078 -0.100228 -0.003079 -0.201432 -0.622788 0.138374 -0.031938 -0.331928 0.133018 -0.010798 -0.302176 0.107168 0.135864 -0.193006 0.464576 0.201125 0.398277 -0.046102 -0.001373 -0.109757 0.218248 0.214234 -0.24543 -0.026373 -0.137135 -0.291112 0.177188 -0.270287 -0.346646 -0.425858 0.360576 -0.313786 -0.218264 0.12027 0.19498 0.337146 -0.107018 -0.199283 -0.155998 -0.089986 -0.181769 0.113983 0.198023 -0.089899 -0.008056 0.161696 -0.437574 -0.247875 0.05744 -0.409856 0.307786 0.038124 0.121919 0.315232 0.062142 0.423235 0.021788 -0.02225 0.321588 0.081287 0.221412 0.078636 -0.181616 0.299405 -0.164565 -0.013981 0.199679 -0.082362 0.118504 -0.040521 0.130053 0.214238 0.186086 -0.046524 -0.151938 -0.005867 -0.091629 0.14061 0.099766 0.11641 0.263907 -0.255424 0.229484 -0.235228 -0.108135 -0.091068 0.007917 0.022805 -0.260468 -0.300355 0.282288 -0.238732 0.033112 -0.335548 -0.140796 0.20134 -0.242901 -0.014564 0.26796 0.042571 -0.006296 0.10334 0.124944 0.415256 0.108335 -0.01751 -0.382394 0.301816 -0.322071 0.137506 -0.023538 -0.073717 -0.105236 -0.150668 -0.099783 0.233686 -0.058706 0.027301 -0.076417 0.034018 -0.331021 -0.027494 0.298839 -0.093834 -0.057349 0.376604 -0.153278 -0.189989 -0.362925 -0.084446 -0.142772 0.070866 0.218464 0.011219 0.295346 0.120787 0.371284 0.288751 0.099639 -0.265366 -0.517031 0.004816 -0.11514 0.076836 -0.238152 -0.553188 0.296127 0.127955 0.148754 0.060292 0.169786 0.167991 -0.069138 0.248042 -0.04478 0.325232 -0.147048 -0.230891 -0.201292 -0.280183 0.00585 -0.147071 0.174532 -0.128389 0.38146 -0.128926 0.212184 -0.453809 -0.046707 0.24342 -0.046861 0.028288 0.208595 0.40128 0.05996 0.145594 -0.411634 0.279521 -0.19983 0.099176 -0.120754 0.221221 0.034973 0.414562 0.386283 0.00418 0.065673 0.214092 -0.027133 0.070581 0.239274 0.048351 0.248714 -0.429178 -0.040777 0.959136 0.398436 0.109578 0.121094 0.024328 0.096488 -0.217803 0.017412 0.087414 -0.411705 -0.401416 0.110794 -0.050485 -0.011811 -0.234535 -0.109244 0.023406 0.167713 0.006524 -0.301822 -0.34502 0.43166 0.39152 -0.057748 0.129886 -0.037302 0.169961 0.182168 -0.215777 -0.26115 0.147936 -0.148117 -0.269386 0.06687 -0.448267 -0.038034 -0.027388 -0.37576 0.076564 -0.072297 0.005861 -0.067749 -0.037588 -0.012046 0.010714 -0.3102 -0.155627 -0.285791 0.070102 -0.044036 -0.079925 -0.186917 -0.077503 0.22867 0.377914 -0.22928 0.22612 0.186588 0.473999 -0.355768 0.34639 -0.315142 2e-06 -0.030266 0.136483 0.144226 -0.116891 0.022534 -0.128227 0.329583 0.246782 -0.237086 -0.016948 -0.230932 0.150552 -0.095802 -1.088158 0.21471 0.137706 -0.13849 -0.114985 -0.170455 -0.023258 0.308113 -0.001457 -0.027064 -0.024684 -0.099543 -0.149246 -0.206585 -0.276799 -0.001862 0.178012 0.139734 0.029661 -0.511908 -0.108847 -0.007186 0.138742 0.351835
v 0.104028 -0.068567 0.000228 0.122259 0.00174 -0.020995 0.073532 -0.115084 -0.059781 0.594835 -0.088618 -0.013881 0.079224 -0.098474 -0.081005 -0.14291 0.09237 -0.035385 0.045768 0.070953 0.073343 -0.060995 -0.191983 -0.098013 0.164486 -0.012892 0.00263 0.0228 0.02366 -0.045263 -0.001459 -0.174861 0.121168 -0.1396 0.474834 -0.022176 -0.087764 -0.024284 0.054115 0.047493 0.040952 0.058065 0.042892 -0.193512 -0.050961 -0.052157 -0.085804 -0.097854 0.078262 -0.058939 0.005927 0.088698 0.035193 -0.042025 0.029999 -0.124359 0.044162 -0.13986 -0.069343 0.128637 -0.069423 -0.041366 -0.213991 0.048426 0.039491 0.265772 -0.082738 -0.075856 -0.007324 0.045215 -0.055066 -0.026863 -0.024692 -0.064659 0.124539 -0.042342 -0.130877 -0.092606 0.108072 0.047973 0.027323 0.069684 0.001319 -0.129974 -0.077833 -0.004182 0.056965 -0.128358 -0.009226 -0.022788 0.081469 -0.11852 0.172166 0.075835 -0.020847 0.000351 0.168288 -0.020988 -0.026834 0.274274 0.030802 -0.032738 -0.027414 0.046931 0.055481 0.047364 -0.153095 -0.080697 0.070989 -0.071911 0.03926 0.228128 0.065359 0.096215 -0.139551 -0.133607 0.117451 -0.107855 -0.032242 0.276715 0.055751 0.040572 -0.006828 0.001937 0.069654 8.8e-05 -0.006377 -0.090789 -0.051118 0.000257 0.025623 -0.172142 -0.064962 0.033194 0.004219 0.02486 -0.002518 0.004263 0.004768 -0.116073 0.062861 -0.041718 -0.074542 -0.091811 0.295541 -0.025149 -0.051626 0.01002 0.120465 -0.009424 -0.372817 -0.008797 -0.076067 0.012505 -0.277081 -0.040503 0.151791 0.032988 -0.059666 0.042037 -0.161695 0.081296 -0.035721 0.042173 0.098958 -0.10632 0.008787 -0.038054 0.023308 -0.172554 -0.113555 -0.024678 0.360597 -0.066406 0.004975 -0.028184 0.041446 -0.013662 0.052144 -0.301318 -0.078533 -0.138209 -0.06076 -0.032591 0.042323 0.150141 0.237318 -0.007041 -0.04201 -0.083016 0.001396 -0.156528 0.006887 0.02973 0.035344 0.041383 -0.11723 0.114282 -0.020329 0.010196 -0.512595 0.01838 -0.012205 0.03391 -0.02974 -0.033051 0.096147 -0.079335 -0.000365 0.12938 0.016314 0.100795 -0.059837 0.010185 -0.111657 -0.07013 0.000678 -0.108812 0.016063 -0.018289 -0.232052 0.10702 0.08258 -0.057097 0.04424 -0.025373 -0.064358 0.012517 0.046273 0.043378 -0.037049 -0.016644 0.013133 0.050896 -0.167004 -0.052 -0.055055 -0.068382 0.03316 -0.074956 0.067946 -0.031999 -0.254047 -0.042586 0.364716 0.039507 -0.116473 0.100955 0.035713 -0.000947 -0.049622 0.035975 0.033876 0.064806 -0.307363 0.104669 0.041128 0.160627 -0.064076 -0.083402 0.007821 0.123002 -0.104303 -0.072008 0.047283 -0.010035 0.057186 -0.026083 -0.034359 -0.039258 0.071767 0.050252 -0.111111 -0.049828 0.006341 -0.054881 0.658714 -0.056421 -0.234368 -0.068858 0.155023 0.069855 -0.01849 0.05448 0.016541 -0.202665 0.055316 -0.122527 -0.027524 0.039533 0.043644 0.190475 0.099788 -0.057025 -0.106198 -0.279364 0.003255 0.22762 0.193707 -0.062994
u 0.10712 -0.071818 0.006636 0.109602 -0.008831 -0.013606 0.100148 -0.097853 -0.054288 0.601451 -0.117539 0.00206 0.077691 -0.118795 -0.08774 -0.143289 0.075614 -0.029975 0.048117 0.068446 0.048183 -0.054557 -0.216342 -0.10012 0.15526 -0.014524 -0.016767 0.007483 0.065077 -0.046724 -0.016432 -0.18371 0.10309 -0.139169 0.484158 -0.015986 -0.076973 -0.019136 0.047773 0.035088 0.044505 0.065217 0.053209 -0.205797 -0.024255 -0.025455 -0.063066 -0.121122 0.066108 -0.067541 -0.010203 0.086183 0.029235 -0.007646 0.038449 -0.124038 0.055346 -0.13695 -0.087562 0.136426 -0.085566 -0.056412 -0.204089 0.069289 0.051089 0.270546 -0.080079 -0.065129 -0.00898 0.077519 -0.057308 -0.02453 -0.015115 -0.06643 0.1183 -0.022547 -0.136481 -0.096958 0.10427 0.03329 0.032412 0.076716 0.00436 -0.122488 -0.074674 -0.0068 0.049536 -0.123442 0.002428 -0.020224 0.065635 -0.114889 0.182127 0.074982 -0.02507 0.000416 0.201543 -0.016897 -0.029835 0.290994 0.029451 -0.019534 -0.026293 0.048331 0.029983 0.041792 -0.153008 -0.094132 0.098727 -0.062842 0.015745 0.203838 0.043787 0.091846 -0.097038 -0.106256 0.10819 -0.102629 -0.021758 0.25919 0.055283 0.032796 -0.035481 0.015952 0.054371 0.00561 -0.004021 -0.07816 -0.042246 -0.001807 0.026728 -0.147645 -0.04886 0.029821 -0.006817 0.018457 -0.007238 0.006473 -0.000194 -0.108505 0.055523 -0.0276 -0.082185 -0.112122 0.295297 -0.037779 -0.069815 0.018432 0.13403 0.003425 -0.370146 -4e-05 -0.070324 0.023231 -0.274405 -0.058465 0.139997 0.007913 -0.062062 0.051426 -0.15719 0.083503 -0.033578 0.02432 0.079758 -0.105419 0.021142 -0.048234 0.022244 -0.182359 -0.117247 -0.017758 0.350023 -0.091302 0.000616 -0.037853 0.022903 -0.011323 0.059319 -0.295271 -0.051528 -0.135868 -0.094251 -0.035099 0.040827 0.117852 0.238913 0.009796 -0.03265 -0.096164 0.022008 -0.153108 0.032256 0.031724 0.037859 0.046134 -0.124339 0.111325 -0.050752 0.005504 -0.510384 0.028975 -0.015534 0.036809 -0.034412 -0.021969 0.108571 -0.067787 0.007405 0.121974 0.015905 0.10512 -0.05887 -0.000251 -0.107944 -0.062098 -0.028561 -0.112522 0.03426 -0.014879 -0.238844 0.107156 0.0824 -0.04873 0.017285 -0.026879 -0.06983 0.036974 0.039881 0.027881 -0.017637 -0.003238 -0.01692 0.067446 -0.151683 -0.048126 -0.069242 -0.067813 0.048544 -0.071211 0.075912 -0.032858 -0.286794 -0.030646 0.346656 0.014476 -0.127712 0.111824 0.040362 0.001777 -0.056659 0.03366 0.040045 0.049396 -0.317152 0.102131 0.043065 0.155706 -0.08489 -0.090126 0.026098 0.115284 -0.095333 -0.069768 0.044849 0.007745 0.044908 -0.03877 -0.032764 -0.045334 0.04151 0.062384 -0.114695 -0.031469 -0.011384 -0.077708 0.659862 -0.021688 -0.257836 -0.07417 0.152569 0.060741 -0.021597 0.050977 0.012302 -0.20077 0.082041 -0.127003 -0.036584 0.019813 0.047877 0.174277 0.102013 -0.048952 -0.124126 -0.292096 0.005515 0.229081 0.176408 -0.067988
c 0.101873 -0.052709 0.007858 0.100086 -0.005443 0.001489 0.08232 -0.099568 -0.044727 0.56766 -0.106556 0.018961 0.086691 -0.119294 -0.082618 -0.151885 0.064547 -0.03571 0.026475 0.054983 0.037819 -0.040336 -0.207646 -0.090885 0.170297 -0.013759 -0.025083 0.028169 0.045033 -0.040831 -0.023921 -0.161187 0.092508 -0.139224 0.478706 0.002621 -0.075425 -0.021308 0.054247 0.035175 0.027216 0.082503 0.061168 -0.199153 -0.011931 -0.011499 -0.074626 -0.108649 0.071754 -0.066055 -0.008477 0.071321 0.02872 0.002852 0.020052 -0.125163 0.030269 -0.135263 -0.085828 0.13152 -0.060164 -0.04796 -0.179013 0.082523 0.03837 0.268972 -0.064904 -0.051105 -0.008589 0.069628 -0.040452 -0.008583 -0.012446 -0.05864 0.093867 -0.010218 -0.125604 -0.087094 0.083611 0.033789 0.000486 0.0666 -0.006729 -0.136963 -0.05907 0.004576 0.058536 -0.106047 -0.009522 -0.004126 0.055772 -0.105853 0.177001 0.06619 -0.026135 -0.005595 0.189486 -0.003256 -0.021542 0.26171 0.03453 -0.011459 -0.039485 0.058549 0.017592 0.032071 -0.158692 -0.084981 0.087418 -0.069474 0.01796 0.19582 0.04187 0.09156 -0.103675 -0.112046 0.087873 -0.093753 -0.041584 0.26969 0.059145 0.026741 -0.021434 0.028848 0.051926 -0.008309 0.004661 -0.082435 -0.049422 0.011326 0.038972 -0.155313 -0.045545 0.031571 -0.011961 0.011627 0.005017 0.025411 -0.010108 -0.102928 0.045967 -0.019382 -0.083033 -0.111559 0.293474 -0.045517 -0.087685 0.01264 0.132061 0.016641 -0.3754 0.007147 -0.055996 0.002521 -0.26969 -0.056025 0.129259 0.017039 -0.056831 0.042992 -0.146482 0.072853 -0.036033 0.029165 0.080924 -0.085963 0.006341 -0.03699 0.023538 -0.1483 -0.103831 -0.007792 0.32255 -0.057293 0.006743 -0.059576 0.012257 -0.00071 0.056239 -0.303113 -0.055854 -0.152749 -0.049025 -0.025833 0.02773 0.100995 0.22934 0.002167 -0.037655 -0.119526 0.003501 -0.135272 0.018695 0.025424 0.043087 0.041913 -0.109833 0.121663 -0.040056 0.002983 -0.520251 0.030971 -0.013756 0.018652 -0.018577 -0.011515 0.101718 -0.071825 -0.024611 0.113695 0.027294 0.103668 -0.057697 0.009699 -0.120599 -0.043063 -0.015101 -0.102034 0.030269 0.005665 -0.246247 0.104834 0.072027 -0.047793 0.019814 -0.016478 -0.067215 0.054118 0.034409 0.013145 -0.012994 0.008483 -0.008743 0.058469 -0.146724 -0.046009 -0.03809 -0.055968 0.02711 -0.055698 0.059022 -0.041372 -0.26942 -0.053708 0.309384 0.017372 -0.119422 0.105911 0.052235 -0.000541 -0.052305 0.037464 0.029282 0.03694 -0.318167 0.092072 0.038578 0.13977 -0.059494 -0.063965 0.011064 0.109855 -0.063166 -0.056752 0.043333 0.017141 0.04079 -0.019943 -0.028785 -0.029457 0.045903 0.067549 -0.097034 -0.027943 -0.008317 -0.062973 0.626542 -0.018573 -0.229425 -0.067724 0.146653 0.04315 -0.01274 0.060159 0.01054 -0.203834 0.072071 -0.128178 -0.028965 0.003348 0.04443 0.153632 0.078141 -0.022567 -0.119855 -0.293581 -0.013408 0.201759 0.188286 -0.086197
l 0.090266 -0.05932 0.008131 0.111986 -0.00447 -0.001468 0.094527 -0.114395 -0.050672 0.603072 -0.101534 0.000512 0.087049 -0.111213 -0.084507 -0.13416 0.061958 -0.040024 0.040628 0.061397 0.053535 -0.048199 -0.216347 -0.091048 0.156248 -0.012745 -0.029711 0.017052 0.043601 -0.043149 -0.023137 -0.165177 0.093956 -0.130537 0.479772 -0.001819 -0.083659 -0.018084 0.056715 0.031403 0.036143 0.08062 0.055309 -0.196467 -0.020262 -0.017386 -0.072507 -0.113251 0.08372 -0.064116 -0.014252 0.075305 0.031259 -0.010818 0.031353 -0.127372 0.042103 -0.131663 -0.091715 0.136014 -0.068227 -0.058507 -0.1969 0.075391 0.054127 0.254822 -0.077057 -0.065265 -0.002553 0.059664 -0.05141 -0.028162 -0.013346 -0.056413 0.113199 -0.02634 -0.139677 -0.08808 0.089634 0.038333 0.018717 0.075896 0.004257 -0.131651 -0.070326 -0.001177 0.063369 -0.116236 -0.007141 -0.023285 0.073276 -0.099696 0.18412 0.067295 -0.036228 -0.005865 0.198866 -0.009074 -0.035401 0.276888 0.033499 -0.025898 -0.032982 0.05545 0.015265 0.041499 -0.138172 -0.091552 0.100757 -0.070832 0.010546 0.212577 0.06058 0.103126 -0.108238 -0.112179 0.093126 -0.107711 -0.0308 0.259242 0.046402 0.034963 -0.030925 0.014587 0.058915 -0.00485 0.010748 -0.09486 -0.046969 -0.00453 0.03503 -0.148884 -0.055352 0.033147 -0.006612 0.028054 0.006609 0.017876 -0.012891 -0.111668 0.067423 -0.026995 -0.079896 -0.108318 0.291645 -0.039492 -0.06567 0.008407 0.117591 0.004434 -0.384346 0.006585 -0.070435 0.004864 -0.280282 -0.063185 0.130852 0.000946 -0.056661 0.056843 -0.155941 0.057436 -0.024452 0.03048 0.077139 -0.087256 0.013642 -0.03312 0.040875 -0.174194 -0.114457 -0.009641 0.344382 -0.073246 -0.00799 -0.041847 0.016924 -0.019088 0.059951 -0.297438 -0.055032 -0.134617 -0.061729 -0.029371 0.046394 0.108973 0.230426 -0.005207 -0.032787 -0.091273 0.008625 -0.140438 0.024492 0.023193 0.035192 0.05786 -0.116271 0.108232 -0.041179 -0.007184 -0.516859 0.026416 -0.016051 0.02521 -0.01592 -0.025612 0.11226 -0.071939 0.002836 0.117746 0.029354 0.108492 -0.056491 0.005896 -0.106654 -0.048964 -0.013666 -0.109535 0.025592 -0.024959 -0.228689 0.103535 0.080112 -0.055092 0.025796 -0.011291 -0.065693 0.048064 0.043734 0.018116 -0.016956 0.005601 -0.011461 0.059222 -0.172164 -0.038474 -0.058234 -0.053258 0.032979 -0.072093 0.068424 -0.038943 -0.27903 -0.03354 0.33654 0.007502 -0.126062 0.103661 0.049001 0.001889 -0.067244 0.026262 0.022563 0.03834 -0.296926 0.094821 0.052237 0.141479 -0.068674 -0.077999 0.012401 0.116858 -0.082905 -0.06591 0.032906 0.018388 0.055389 -0.03736 -0.029012 -0.043041 0.036492 0.067824 -0.113 -0.031517 -0.016793 -0.074426 0.660035 -0.033808 -0.256708 -0.068965 0.144243 0.065994 -0.019112 0.056023 0.0056 -0.202701 0.072609 -0.123854 -0.042221 0.012742 0.04907 0.162566 0.09792 -0.030922 -0.123359 -0.289341 0.008868 0.220493 0.182948 -0.062885
: 0.344621 -0.178906 0.111433 0.025067 0.081994 -0.052747 0.071048 0.026065 0.085403 0.802082 -0.138277 0.295378 0.038073 -0.287652 -0.086678 0.04561 0.327527 0.097554 -0.036331 0.257097 -0.3429 -0.357377 -0.092039 -0.238252 0.231263 0.164884 0.136635 0.309389 -0.029089 -0.216263 0.115979 -0.180179 0.363318 0.139797 0.405097 -0.028945 0.141923 0.003317 0.098431 0.312127 0.261838 -0.004713 -0.052691 -0.259054 0.001439 -0.027435 0.257959 -0.194718 0.093651 0.218791 0.116804 0.355411 -0.217196 -0.086695 -0.086798 -0.105825 0.034042 -0.25457 0.06443 0.263544 0.158464 -0.03797 -0.634756 0.009579 -0.050191 0.105338 -0.042295 -0.155741 -0.017253 -0.103026 0.069489 0.037198 -0.074987 0.206372 0.124763 0.189559 -0.01128 -0.19187 0.154552 -0.211304 0.021481 -0.159273 -0.14344 0.074917 0.032753 -0.150276 -0.108259 -0.230648 0.204479 0.091447 0.079329 -0.349387 0.10109 -0.009097 -0.173227 -0.289847 0.215244 -0.100135 -0.132186 0.266436 -0.057948 -0.023236 -0.00509 0.305431 -0.05063 -0.336671 -0.183254 -0.040519 -0.089497 0.221643 -0.101725 0.022541 -0.057767 0.126019 -0.070507 0.031408 0.078256 0.041436 0.294178 0.02036 -0.335505 0.074741 0.22682 0.048805 -0.259881 0.033113 0.0177 -0.280665 -0.252305 -0.192044 0.150591 0.03289 -0.018778 0.085711 -0.210503 -0.060541 -0.349667 -0.07381 0.21704 0.013558 -0.330519 -0.241777 0.030618 -0.297057 0.404824 -0.049517 -0.231194 0.051844 0.453909 -0.049334 -0.379547 -0.031458 0.056793 -0.290867 -0.19355 -0.051473 0.408161 0.256949 -0.015658 0.035632 -0.060164 0.034517 -0.12226 -0.010446 0.205806 0.089114 -0.242975 -0.13546 -0.156496 -0.28649 -0.115637 -0.078482 0.586225 0.002012 0.040256 -0.217423 -0.005972 -0.165221 -0.126417 -0.265742 -0.13844 -0.118773 -0.005069 -0.275012 0.072122 -0.045781 0.317319 -0.344413 -0.24513 -0.021334 0.137193 0.003965 0.11738 0.011177 0.22109 -0.292151 -0.230609 0.137628 -0.036733 -0.11307 -0.452879 0.037139 -0.008342 -0.38999 -0.137742 -0.032706 -0.121182 -0.335645 -0.291156 -0.283471 -0.121633 -0.050826 -0.158995 0.187583 -0.440136 0.214714 -0.239437 -0.032269 -0.097698 0.256344 -0.093439 0.210178 0.237662 0.03588 -0.165373 0.037876 -0.168078 -0.265512 0.14843 0.211735 0.14937 0.045424 0.341696 -0.156871 -0.204669 -0.158656 0.077376 0.184735 0.344158 -0.018827 0.032093 -0.196588 -0.250768 -0.164957 0.412479 0.002524 -0.382028 0.246065 -0.236688 0.286636 -0.078228 0.39755 -0.013555 -0.078655 -0.186575 0.288669 0.153642 0.097225 -0.137314 0.34051 0.176636 0.009325 -0.078736 -0.104013 0.182337 0.012592 0.450022 0.091688 0.171499 0.057679 -0.127997 0.137283 0.080042 0.008228 -0.10175 0.034928 1.019444 0.073538 -0.30968 -0.240737 0.392752 0.047042 -0.080474 -0.126065 0.037287 -0.171131 0.015664 -0.179313 0.160426 -0.0045 -0.180657 -0.008149 -0.115718 -0.066608 0.066571 -0.243567 -0.157597 0.41306 0.284937 -0.096844
p 0.095011 -0.057826 0.008184 0.098983 -0.011269 0.006617 0.088019 -0.088067 -0.054512 0.559297 -0.120469 0.031001 0.081595 -0.119898 -0.074358 -0.14251 0.059424 -0.029523 0.031454 0.051108 0.031933 -0.040872 -0.20633 -0.07222 0.175575 -0.02453 -0.024509 0.023579 0.050446 -0.028668 -0.024777 -0.168981 0.083069 -0.1437 0.476267 0.004612 -0.090663 -0.019502 0.050923 0.046082 0.021938 0.083582 0.045782 -0.211598 -0.012822 -0.015616 -0.048797 -0.109811 0.062134 -0.061764 -4.4e-05 0.06318 0.033888 -0.010643 0.01872 -0.123461 0.0403 -0.132028 -0.074386 0.146319 -0.061188 -0.048341 -0.187179 0.079177 0.042079 0.275456 -0.065344 -0.050535 -0.013375 0.082701 -0.037805 -0.001283 -0.015447 -0.063456 0.10041 -0.002842 -0.12007 -0.086041 0.086961 0.029452 -0.001541 0.069755 -0.002551 -0.143049 -0.051461 0.007039 0.044273 -0.103612 -0.005998 -0.002496 0.051351 -0.106397 0.178331 0.061505 -0.019168 -0.000111 0.185553 -0.010139 -0.020206 0.258107 0.034993 0.002035 -0.040687 0.055411 0.016023 0.03054 -0.15864 -0.086598 0.083305 -0.076156 0.024394 0.205291 0.024861 0.088061 -0.090113 -0.112685 0.095711 -0.084222 -0.0439 0.253267 0.061611 0.020342 -0.012862 0.04573 0.055549 -0.001744 0.00251 -0.079201 -0.039172 0.00645 0.040283 -0.14223 -0.035488 0.042797 -0.012804 0.016443 0.007312 0.034137 -0.000823 -0.093642 0.040683 -0.012222 -0.089694 -0.113422 0.285154 -0.045378 -0.090144 0.032495 0.150851 0.021325 -0.37938 -0.001298 -0.059722 0.023393 -0.274317 -0.056117 0.130972 0.025103 -0.046419 0.04605 -0.156078 0.087429 -0.047435 0.03035 0.080655 -0.081278 0.001365 -0.023336 0.020167 -0.161496 -0.104849 -0.0114 0.315576 -0.059422 -0.004395 -0.08305 0.014009 0.015334 0.057355 -0.301194 -0.050258 -0.16642 -0.046359 -0.025474 0.024447 0.096361 0.256863 0.010761 -0.023265 -0.124513 0.010142 -0.131473 0.017506 0.026818 0.048722 0.035115 -0.114263 0.112322 -0.033576 0.003811 -0.502841 0.040339 -0.01749 0.026087 -0.028277 -0.017095 0.099389 -0.07591 -0.031524 0.118402 0.022824 0.10115 -0.066454 0.014715 -0.121742 -0.04151 -0.019213 -0.096315 0.034378 0.018348 -0.244255 0.108973 0.063578 -0.039997 0.017221 -0.036879 -0.069762 0.056942 0.032543 0.018137 -0.011397 -0.001913 -0.01733 0.066484 -0.13059 -0.031147 -0.045921 -0.070128 0.029484 -0.062636 0.072691 -0.035194 -0.276077 -0.047128 0.291559 0.01191 -0.103527 0.126008 0.04957 0.001355 -0.067206 0.03075 0.031543 0.032819 -0.331472 0.098759 0.03289 0.148281 -0.071475 -0.056634 0.019127 0.110379 -0.056145 -0.052484 0.046905 0.017672 0.038098 -0.027193 -0.01952 -0.024781 0.055929 0.062285 -0.100422 -0.028612 -0.009651 -0.065433 0.611844 -0.015021 -0.232437 -0.067551 0.141287 0.038471 -0.02725 0.071587 0.00606 -0.204384 0.074215 -0.119712 -0.032221 0.008741 0.030371 0.142859 0.073982 -0.035908 -0.120544 -0.293108 -0.013301 0.1891 0.189981 -0.089271
g 0.096106 -0.065064 0.023385 0.109951 -0.014059 -0.015644 0.099014 -0.098976 -0.049742 0.586221 -0.119338 0.003908 0.088592 -0.102014 -0.093883 -0.128256 0.084416 -0.037622 0.048717 0.074345 0.058651 -0.049909 -0.208766 -0.096381 0.156009 -0.019431 -0.027842 0.013391 0.053076 -0.036401 -0.021714 -0.181736 0.106926 -0.123429 0.460511 -0.002247 -0.088302 -0.014913 0.058327 0.027759 0.061856 0.07193 0.060394 -0.199772 -0.020175 -0.008997 -0.063528 -0.109845 0.060695 -0.073698 -0.00646 0.07088 0.023798 -0.008014 0.02783 -0.10494 0.052789 -0.1309 -0.105662 0.145382 -0.074223 -0.055612 -0.192553 0.074156 0.060423 0.260299 -0.082756 -0.052752 -0.002568 0.070037 -0.056129 -0.024645 -0.015687 -0.068333 0.111381 -0.01887 -0.147081 -0.085301 0.092178 0.033583 0.017278 0.061947 0.002177 -0.121577 -0.054408 -0.013978 0.047726 -0.126709 0.010009 -0.004541 0.065256 -0.09624 0.182481 0.078273 -0.040543 -0.010827 0.193041 -0.019695 -0.036141 0.263312 0.022214 -0.012007 -0.037176 0.044955 0.010062 0.032857 -0.149551 -0.088958 0.087695 -0.053738 0.017777 0.203295 0.034845 0.091412 -0.086969 -0.101386 0.09584 -0.102467 -0.038648 0.235669 0.036672 0.030954 -0.027431 0.015123 0.049224 -0.00867 0.001492 -0.097957 -0.042604 -0.018738 0.029079 -0.142378 -0.043925 0.034311 -0.015355 0.029576 0.004277 0.023743 -0.008085 -0.097002 0.05189 -0.029627 -0.073701 -0.112548 0.293416 -0.031032 -0.066173 0.02208 0.143214 -4e-05 -0.381183 0.008147 -0.070866 0.010228 -0.263041 -0.065699 0.13561 0.013147 -0.055135 0.054624 -0.156425 0.071298 -0.021417 0.013678 0.082543 -0.097344 0.023429 -0.037545 0.037536 -0.182399 -0.119161 -0.014258 0.327334 -0.090296 -0.01944 -0.040832 0.026456 -0.012333 0.050543 -0.286712 -0.060194 -0.14946 -0.074232 -0.034064 0.045073 0.120785 0.241822 -0.014703 -0.046725 -0.121704 0.010729 -0.147983 0.019832 0.022866 0.044133 0.045704 -0.113142 0.101082 -0.032907 -0.005273 -0.505776 0.03052 -0.012647 0.030774 -0.03196 -0.020336 0.105051 -0.069084 0.01064 0.122809 0.02236 0.115348 -0.056243 -0.001297 -0.098672 -0.047327 -0.032383 -0.098757 0.022569 -0.004747 -0.235793 0.094406 0.07165 -0.046884 0.024527 -0.032594 -0.064872 0.040539 0.029183 0.018568 -0.007091 -0.002818 -0.018431 0.069618 -0.149589 -0.050914 -0.065374 -0.064704 0.039318 -0.06267 0.060484 -0.022877 -0.279453 -0.020302 0.333305 0.018629 -0.134688 0.119096 0.041783 0.012993 -0.065945 0.030145 0.044187 0.031098 -0.294738 0.087979 0.037876 0.133018 -0.084411 -0.095679 0.026157 0.115971 -0.082333 -0.07292 0.053885 0.033389 0.032223 -0.044476 -0.048831 -0.044338 0.034722 0.063365 -0.102002 -0.020801 -0.008364 -0.080612 0.630238 -0.025633 -0.237424 -0.072275 0.131947 0.054874 -0.021079 0.045254 0.01096 -0.197557 0.073654 -0.119794 -0.044338 0.011067 0.041148 0.167669 0.08984 -0.038202 -0.12159 -0.28142 0.012097 0.224996 0.180666 -0.062041
$ -0.151999 0.047738 -0.089132 0.15065 -0.312547 0.079223 0.360062 -0.106226 -0.049901 0.678123 -0.106144 0.347177 0.153096 0.272885 -0.096103 0.014884 -0.016667 0.100858 -0.173553 -0.041438 0.076755 -0.193346 -0.566723 0.071625 0.192089 0.262333 -0.162615 0.235991 0.141688 -0.085308 -0.43025 -0.122891 -0.000637 0.144153 0.213549 -0.402937 0.033442 0.329891 0.139909 0.072207 -0.123868 -0.112248 -0.19617 0.086015 0.187272 -0.280003 -0.168037 -0.075776 0.30153 0.179422 -0.258335 -0.134049 -0.401105 -0.085313 -0.052621 -0.129161 0.350084 -0.009627 -0.171716 -0.177977 -0.526971 -0.036912 -0.26518 -0.425537 0.313726 0.061602 -0.392252 -0.444495 -0.05196 0.080667 0.03224 0.432691 0.425195 -0.12808 0.243562 -0.187471 -0.060896 -0.333964 0.237014 -0.001347 -0.269324 -0.25278 0.012496 -0.184541 -0.21796 0.016831 0.185966 -0.44802 0.008316 0.012292 0.253081 -0.18495 0.086999 0.078086 0.332892 -0.300922 0.245515 0.005349 -0.104504 0.504229 -0.115996 -0.227121 -0.223201 -0.228223 0.171232 0.072666 0.093764 -0.309946 -0.307333 -0.236317 -0.222997 0.108725 -0.073158 0.046121 -0.37669 -0.489209 0.088841 -0.05135 0.055371 -0.050685 -0.13473 0.379433 -0.227323 0.434574 0.013475 0.117863 0.117749 -0.005563 -0.203074 -0.050726 -0.302792 -0.254675 0.246692 0.198094 -0.197197 0.208597 -0.241414 0.194739 -0.137451 -0.203913 -0.329358 -0.028666 -0.203839 0.125774 0.056528 -0.14309 -0.238265 0.014695 0.138943 -0.017045 0.226673 -0.093049 -0.133848 -0.199087 -0.552047 -0.067804 -0.042069 0.244733 -0.569787 -0.031225 -0.262191 0.344515 -0.07336 0.095446 0.310374 -0.079053 0.076384 0.007471 -0.003978 -0.318805 -0.025427 -0.068075 0.202065 -0.341546 0.109874 -0.401166 -0.04458 0.067841 0.02514 -0.125199 -0.008052 -0.465201 -0.36295 -0.203861 -0.155851 -0.106285 0.722966 0.394862 -0.056739 -0.053207 -0.000533 0.227274 0.021012 0.197429 0.014786 -0.274704 -0.213304 -0.021304 0.246902 -0.275775 -0.385998 0.01766 0.03573 0.220193 0.06079 0.25728 0.115505 -0.284662 0.242364 -0.028197 0.062105 -0.055791 -0.201786 -0.024121 -0.253252 -0.015104 -0.455707 -0.047331 0.02653 0.354831 -0.182277 -0.055709 -0.106018 0.476374 0.06449 0.031697 -0.112434 -0.205919 0.24837 0.136456 0.024157 0.371454 -0.395934 0.319725 0.07589 -0.361531 0.054736 0.179045 0.245484 0.13668 -0.166356 -0.049279 -0.018462 0.024398 0.077255 0.039849 0.347518 -0.319034 0.178617 -0.027672 -0.593381 0.139592 0.276957 -0.16222 -0.423776 0.441994 -0.378683 0.200409 0.187523 0.05391 0.390329 0.123131 -0.278704 -0.293673 0.202685 0.023871 0.385769 0.09386 0.38891 -0.00034 0.012829 -0.065464 0.053019 -0.131426 0.015893 -0.009414 0.546174 -0.346406 -0.300112 -0.251085 0.149405 -0.182049 0.042421 -0.089266 -0.115748 0.223979 0.053547 -0.460933 -0.323946 0.072083 -0.048376 0.213509 0.062348 0.173222 0.1737 -0.452154 -0.061904 0.42816 0.393628 -0.308731
; 0.113977 -0.077589 -0.0157 0.236641 -0.081549 0.066233 0.198611 0.044081 -0.080682 0.42614 -0.094315 0.002569 0.207677 0.048185 -0.225188 -0.314997 0.020137 -0.094281 -0.01482 -0.055976 -0.002299 -0.138707 -0.130925 0.041266 0.119146 0.087924 -0.115633 0.223019 0.144547 -0.035555 -0.070274 -0.008374 0.080529 -0.220444 0.124733 -0.214714 -0.068658 0.057578 0.208646 0.021118 -0.063072 0.108634 -0.133006 -0.056305 -0.108679 0.021513 -0.169891 -0.133147 0.110999 0.041565 0.055566 0.181882 -0.060984 0.109412 -0.080889 0.021345 0.266382 -0.376908 0.013724 0.009207 0.201717 -0.003275 -0.029928 0.145696 0.13342 0.167182 -0.179411 -0.038571 0.033463 0.020083 -0.083183 0.105652 -0.047266 0.133229 0.005309 -0.095486 -0.065041 -0.121992 0.246584 0.069147 -0.098432 0.069454 -0.242136 -0.157911 -0.041323 0.071834 0.04191 -0.053346 0.031234 -0.012403 0.020814 -0.12684 0.040322 -0.115756 0.169283 -0.000614 0.047989 0.122811 0.086791 0.218077 -0.146311 0.034033 -0.179692 0.006295 -0.042423 -0.126928 0.02461 -0.085269 0.069227 -0.042845 0.057024 0.038678 0.148098 0.000443 -0.191019 -0.094315 -0.084348 0.055348 -0.019427 0.271027 0.11262 0.110539 0.112113 -0.01006 -0.031047 -0.002472 -0.136226 -0.039163 -0.199986 0.145641 0.054183 -0.061394 0.001037 0.161022 -0.169626 -0.101789 -0.131909 0.217445 0.17824 -0.168123 0.00376 0.023552 0.125338 -0.09193 0.127077 -0.064939 -0.253227 0.033091 0.240806 0.071988 -0.228412 0.007742 0.090079 -0.036351 -0.17186 -0.037588 0.098543 -0.09588 0.108014 0.155273 0.09529 0.093958 -0.059735 0.125269 -0.026281 0.168277 0.197009 -0.156867 -0.168698 -0.038777 -0.05247 0.116901 0.338829 -0.030632 0.176434 -0.018865 0.127982 -0.058506 0.136614 0.064546 -0.219088 -0.171325 -0.153695 -0.063171 -0.06827 -0.122449 0.448324 0.0676 -0.050722 -0.17004 0.020096 -0.07857 -0.119047 0.121814 0.220844 -0.183321 0.117001 0.143176 -0.128693 -0.126295 -0.413691 0.116864 0.178762 0.277352 -0.123381 -0.006417 0.111302 -0.046401 -0.173607 -0.15266 0.106369 -0.185198 -0.341904 0.098752 -0.250911 0.162074 0.031182 0.291862 -0.10529 0.111538 -0.093836 0.130389 0.053342 2.4e-05 -0.018318 -0.069097 0.134116 -0.098183 0.082647 0.343659 -0.158744 0.136256 0.082829 0.171088 -0.005234 0.0474 0.075094 -0.014991 0.252239 -0.05829 -0.117636 -0.029564 -0.055004 -0.013896 0.210929 -0.002051 -0.167986 0.069151 0.051065 0.158061 -0.147391 0.165978 0.009117 -0.107386 -0.238439 0.137527 -0.119381 -0.096516 -0.03685 0.066131 -0.115089 -0.010416 -0.067844 -0.079769 0.10442 0.183673 0.174748 0.109595 -0.054309 0.082132 -0.008494 -0.14533 0.047739 0.115236 -0.201578 -0.069252 0.673959 0.034517 -0.316033 -0.001021 -0.123018 -0.280972 -0.259314 -0.097793 0.009101 -0.224814 -0.091592 0.011123 -0.154771 -0.069439 0.175941 -0.011631 0.006666 -0.081676 -0.010761 -0.376941 0.064828 0.157466 0.140642 0.102963
_ 0.082983 -0.010801 0.049936 0.131988 0.098626 0.001576 0.011511 -0.292687 -0.039063 0.534046 -0.146524 0.119973 0.028334 -0.110932 -0.339461 -0.229754 0.045992 0.031565 -0.009307 -0.096398 -0.03901 -0.166458 -0.20797 -0.051764 0.269616 0.020226 -0.159327 0.287529 0.080532 -0.100754 -0.007945 -0.320621 -0.054231 -0.158303 0.435851 0.004088 0.002949 -0.287271 -0.150822 0.155125 -0.010924 0.024896 -0.073951 0.028759 0.008945 -0.107504 -0.06252 -0.097385 -0.070585 0.036063 0.173079 -0.043261 0.099556 0.157221 -0.157911 0.05663 0.070632 -0.218083 -0.128962 0.202336 0.28088 0.068047 -0.294345 0.098856 -0.062813 0.392126 -0.204425 -0.064817 -0.038574 0.165392 -0.136922 -0.033135 0.063958 -0.025551 0.08402 -0.024911 -0.00026 -0.014837 0.11649 -0.198743 0.048047 0.158146 0.081397 -0.233374 -0.093166 -0.076749 -0.124661 -0.135439 0.019932 -0.003799 0.024376 -0.178573 0.296419 -0.136248 0.04782 0.023969 0.101632 0.011118 0.052792 -0.020836 -0.128984 0.068761 0.071188 0.179481 0.012232 -0.018885 0.106969 -0.259041 0.126506 0.040137 0.284958 0.100102 -0.080775 0.049557 -0.106656 -0.071242 0.067884 0.15357 0.185609 -0.014316 0.243638 0.200622 0.302621 0.052136 0.069527 0.048278 -0.107904 -0.310159 -0.201048 -0.200704 0.159633 -0.062373 -0.224317 0.100502 -0.018196 -0.184329 -0.109677 0.117626 0.083354 -0.066208 0.080327 -0.084972 -0.018936 -0.122701 0.185871 -0.208836 -0.148279 0.047989 0.361869 0.19199 -0.24544 0.080082 0.002811 -0.09589 -0.208155 -0.138236 0.271047 0.038261 0.098242 0.01711 -0.007792 0.160544 -0.05749 0.172006 -0.163942 0.00988 0.052385 -0.206161 -0.247752 -0.125756 -0.192443 -0.112505 0.263756 0.006005 0.261719 -0.059536 0.183874 0.2133 0.180338 -0.464954 -0.203547 -0.381902 -0.031868 -0.20593 -0.098094 0.113371 0.256765 -0.076857 -0.140469 -0.1485 0.16319 -0.107583 0.047609 0.280704 0.096288 -0.118854 0.133711 0.078729 -0.156436 -0.069932 -0.482917 0.01803 -0.026602 -0.060593 -0.02831 -0.204049 0.03184 -0.085226 -0.044992 -0.018792 -0.328681 -0.136593 -0.09171 0.047453 -0.131191 0.031503 -0.007053 -0.041297 0.070588 0.164572 -0.147177 0.363799 0.301387 0.135183 0.235165 -0.131524 0.143024 0.062754 0.037932 0.058263 -0.20036 0.164173 0.060835 -0.057633 -0.05146 -0.063342 -0.022561 -0.090421 0.14709 -0.056555 0.019747 -0.091174 -0.276752 -0.093104 0.599645 -0.137094 -0.166139 0.124287 0.034625 -0.094003 -0.083097 0.084409 -0.083742 0.040992 -0.309297 0.080137 0.021216 0.116408 -0.152413 -0.157007 0.095257 -0.208307 0.224982 0.020973 0.032796 0.064552 0.077602 0.262102 -0.118874 0.085704 -0.075277 0.100826 0.022465 -0.180888 -0.153852 -0.118635 0.748929 0.266535 -0.160411 -0.274625 0.186062 -0.063714 -0.02129 0.078843 0.025781 -0.11397 0.199028 -0.396257 -0.102059 -0.087027 -0.026005 0.204087 -0.078712 -0.082429 -0.014854 -0.338344 -0.203817 0.044124 0.081017 0.105472
k 0.098158 -0.091056 0.01034 0.146934 0.004832 -0.051764 0.108217 -0.094155 -0.065697 0.672525 -0.108034 -0.048476 0.094827 -0.084111 -0.076776 -0.123578 0.093422 -0.037326 0.049044 0.087788 0.11434 -0.09209 -0.212274 -0.120963 0.145021 -0.005697 -0.024632 -4.1e-05 0.034837 -0.07056 -0.010883 -0.210659 0.135784 -0.125043 0.470413 -0.030315 -0.083621 -0.01029 0.063934 0.033639 0.063047 0.048871 0.051148 -0.186809 -0.061544 -0.063989 -0.09441 -0.168913 0.068028 -0.083604 -0.019619 0.090514 0.014455 -0.025149 0.028829 -0.120035 0.05958 -0.145012 -0.123499 0.122375 -0.095881 -0.031443 -0.240133 0.045937 0.077572 0.268205 -0.107454 -0.063855 -0.006235 0.03862 -0.043429 -0.04618 -0.029164 -0.048384 0.126073 -0.047981 -0.15186 -0.097042 0.121605 0.03465 0.061748 0.093231 -0.004077 -0.118955 -0.080429 -0.01217 0.043678 -0.148117 -0.007529 -0.062309 0.086679 -0.107312 0.161142 0.06577 -0.02587 -0.009243 0.207153 -0.035218 -0.02775 0.285268 0.017054 -0.05327 -0.007782 0.025664 0.043693 0.03103 -0.119261 -0.080902 0.086165 -0.065773 0.004401 0.228598 0.082 0.13312 -0.116312 -0.098931 0.104411 -0.122194 -0.008755 0.25363 0.046362 0.042926 -0.030829 -0.014248 0.061773 0.010824 -0.0018 -0.106404 -0.053748 -0.017734 0.00876 -0.142804 -0.050419 0.021495 0.019945 0.034184 -0.000734 0.003707 0.005125 -0.125773 0.080195 -0.036406 -0.065902 -0.137176 0.313752 0.008992 -0.050126 0.004717 0.118756 -0.034874 -0.379571 0.036005 -0.073337 0.010709 -0.289076 -0.045487 0.139775 0.001868 -0.06208 0.062444 -0.167198 0.070214 -0.017177 0.013217 0.077698 -0.09887 0.030794 -0.033604 0.027719 -0.216583 -0.141813 -0.040635 0.385996 -0.092062 -0.026031 0.012628 0.05322 -0.042798 0.066158 -0.299261 -0.069844 -0.101789 -0.105424 -0.062312 0.057118 0.160954 0.247195 -0.015893 -0.042916 -0.066716 0.041267 -0.151992 0.022123 0.040773 0.017345 0.077016 -0.096991 0.109836 -0.055389 -0.002119 -0.514339 0.01939 -0.014872 0.051802 -0.057794 -0.024043 0.124982 -0.093655 0.026617 0.108305 0.027601 0.109122 -0.057194 -0.012423 -0.097422 -0.097591 -0.041367 -0.098731 0.0026 -0.059381 -0.239398 0.095148 0.094249 -0.075415 0.051565 -0.020202 -0.087553 0.015352 0.041235 0.044834 -0.025786 -0.016196 0.000935 0.069627 -0.185783 -0.047321 -0.088865 -0.074947 0.080033 -0.087326 0.077083 -0.026524 -0.294708 -0.031081 0.423465 0.015882 -0.155613 0.115218 0.022249 0.016463 -0.078502 0.030392 0.022121 0.052405 -0.292176 0.101274 0.060298 0.159819 -0.078264 -0.114928 0.003812 0.133471 -0.118968 -0.106283 0.036401 -0.022644 0.058058 -0.042885 -0.066889 -0.051703 0.034075 0.058521 -0.105428 -0.060515 -0.008688 -0.080608 0.724361 -0.039845 -0.285433 -0.095697 0.142795 0.082826 -0.04164 0.028537 0.004133 -0.219779 0.072611 -0.136682 -0.047398 0.040414 0.064499 0.213664 0.10188 -0.058012 -0.142785 -0.268791 0.037336 0.265624 0.18127 -0.039588
j 0.111095 -0.101675 -0.002295 0.143512 0.012529 -0.051926 0.096109 -0.07787 -0.086597 0.67018 -0.098706 -0.033543 0.098361 -0.092914 -0.094747 -0.124467 0.104252 -0.035925 0.074564 0.09962 0.089125 -0.100507 -0.203573 -0.134698 0.155532 -0.020138 -0.024639 -0.006969 0.069802 -0.091207 0.004539 -0.211921 0.138986 -0.123317 0.47725 -0.035388 -0.061206 -0.034544 0.039583 0.051935 0.068805 0.048952 0.072135 -0.177719 -0.06314 -0.074888 -0.093233 -0.138619 0.083099 -0.080181 -0.016152 0.116297 0.005882 -0.003631 0.029821 -0.113073 0.078537 -0.170931 -0.088691 0.123476 -0.114505 -0.053674 -0.24432 0.069414 0.08265 0.276717 -0.108248 -0.075596 -0.025205 0.050735 -0.04933 -0.052821 -0.019075 -0.055978 0.116338 -0.033427 -0.122408 -0.129789 0.141132 0.038495 0.075505 0.090345 0.003422 -0.10376 -0.10024 -0.02614 0.047338 -0.152249 -0.006609 -0.046785 0.078521 -0.122646 0.164752 0.079535 -0.013862 0.006422 0.223715 -0.063294 -0.012036 0.302173 0.008348 -0.075313 0.01223 0.029344 0.064021 0.040366 -0.139768 -0.090057 0.100204 -0.052967 0.023835 0.215327 0.075684 0.107887 -0.08835 -0.087531 0.111514 -0.114638 -0.00423 0.24522 0.050154 0.065943 -0.02251 -0.033148 0.057304 0.02631 -0.007845 -0.090342 -0.040305 0.001692 -0.004711 -0.175973 -0.067605 0.04236 0.021257 0.020335 -0.006981 -0.013543 -0.005358 -0.11657 0.060831 -0.03163 -0.066936 -0.14009 0.308682 0.019253 -0.038498 0.030001 0.130162 -0.02287 -0.351953 0.0268 -0.072596 0.023551 -0.298494 -0.060263 0.157771 0.025085 -0.070128 0.070857 -0.155627 0.104364 -0.044259 0.01227 0.074759 -0.112786 0.020872 -0.054304 -0.004886 -0.201815 -0.13145 -0.023981 0.393955 -0.100627 -0.00155 0.004079 0.039763 -0.05145 0.053758 -0.282355 -0.088618 -0.103147 -0.125431 -0.0331 0.029333 0.145536 0.202951 0.000641 -0.040305 -0.051442 0.061849 -0.177436 0.012287 0.061955 0.00043 0.07274 -0.097074 0.11996 -0.044826 -0.000883 -0.516223 0.006165 -0.010913 0.066079 -0.047177 -0.031988 0.119735 -0.082501 0.03127 0.118843 0.004866 0.099436 -0.053474 -0.00525 -0.096775 -0.091763 -0.044219 -0.115796 0.037358 -0.045851 -0.254335 0.10292 0.097619 -0.041052 0.049533 -0.013347 -0.080664 0.011405 0.03686 0.047491 -0.01696 -0.015196 0.009266 0.06408 -0.166389 -0.066896 -0.106806 -0.07625 0.082831 -0.111587 0.088342 -0.02733 -0.328394 -0.031396 0.454463 0.068779 -0.160911 0.102452 0.014847 0.023375 -0.061575 0.033813 0.029116 0.059396 -0.3227 0.08617 0.075514 0.172205 -0.116131 -0.13636 0.027802 0.122739 -0.12699 -0.109799 0.048242 -0.023006 0.058607 -0.022003 -0.073746 -0.069214 0.010856 0.051669 -0.098461 -0.056065 -0.004225 -0.075057 0.736155 -0.055983 -0.299516 -0.077827 0.172749 0.067371 -0.033151 0.028376 0.024066 -0.205138 0.098167 -0.127913 -0.036824 0.04355 0.089149 0.234975 0.106728 -0.080894 -0.139911 -0.25651 0.026932 0.235089 0.166701 -0.045169
